{"learner":{"attributes":{},"feature_names":[],"feature_types":[],"gradient_booster":{"model":{"gbtree_model_param":{"num_parallel_tree":"1","num_trees":"375"},"iteration_indptr":[0,1,2,3,4,5,6,7,8,9,10,11,12,13,14,15,16,17,18,19,20,21,22,23,24,25,26,27,28,29,30,31,32,33,34,35,36,37,38,39,40,41,42,43,44,45,46,47,48,49,50,51,52,53,54,55,56,57,58,59,60,61,62,63,64,65,66,67,68,69,70,71,72,73,74,75,76,77,78,79,80,81,82,83,84,85,86,87,88,89,90,91,92,93,94,95,96,97,98,99,100,101,102,103,104,105,106,107,108,109,110,111,112,113,114,115,116,117,118,119,120,121,122,123,124,125,126,127,128,129,130,131,132,133,134,135,136,137,138,139,140,141,142,143,144,145,146,147,148,149,150,151,152,153,154,155,156,157,158,159,160,161,162,163,164,165,166,167,168,169,170,171,172,173,174,175,176,177,178,179,180,181,182,183,184,185,186,187,188,189,190,191,192,193,194,195,196,197,198,199,200,201,202,203,204,205,206,207,208,209,210,211,212,213,214,215,216,217,218,219,220,221,222,223,224,225,226,227,228,229,230,231,232,233,234,235,236,237,238,239,240,241,242,243,244,245,246,247,248,249,250,251,252,253,254,255,256,257,258,259,260,261,262,263,264,265,266,267,268,269,270,271,272,273,274,275,276,277,278,279,280,281,282,283,284,285,286,287,288,289,290,291,292,293,294,295,296,297,298,299,300,301,302,303,304,305,306,307,308,309,310,311,312,313,314,315,316,317,318,319,320,321,322,323,324,325,326,327,328,329,330,331,332,333,334,335,336,337,338,339,340,341,342,343,344,345,346,347,348,349,350,351,352,353,354,355,356,357,358,359,360,361,362,363,364,365,366,367,368,369,370,371,372,373,374,375],"tree_info":[0,0,0,0,0,0,0,0,0,0,0,0,0,0,0,0,0,0,0,0,0,0,0,0,0,0,0,0,0,0,0,0,0,0,0,0,0,0,0,0,0,0,0,0,0,0,0,0,0,0,0,0,0,0,0,0,0,0,0,0,0,0,0,0,0,0,0,0,0,0,0,0,0,0,0,0,0,0,0,0,0,0,0,0,0,0,0,0,0,0,0,0,0,0,0,0,0,0,0,0,0,0,0,0,0,0,0,0,0,0,0,0,0,0,0,0,0,0,0,0,0,0,0,0,0,0,0,0,0,0,0,0,0,0,0,0,0,0,0,0,0,0,0,0,0,0,0,0,0,0,0,0,0,0,0,0,0,0,0,0,0,0,0,0,0,0,0,0,0,0,0,0,0,0,0,0,0,0,0,0,0,0,0,0,0,0,0,0,0,0,0,0,0,0,0,0,0,0,0,0,0,0,0,0,0,0,0,0,0,0,0,0,0,0,0,0,0,0,0,0,0,0,0,0,0,0,0,0,0,0,0,0,0,0,0,0,0,0,0,0,0,0,0,0,0,0,0,0,0,0,0,0,0,0,0,0,0,0,0,0,0,0,0,0,0,0,0,0,0,0,0,0,0,0,0,0,0,0,0,0,0,0,0,0,0,0,0,0,0,0,0,0,0,0,0,0,0,0,0,0,0,0,0,0,0,0,0,0,0,0,0,0,0,0,0,0,0,0,0,0,0,0,0,0,0,0,0,0,0,0,0,0,0,0,0,0,0,0,0,0,0,0,0,0,0,0,0,0,0,0,0,0,0,0,0,0,0,0,0,0,0,0,0,0,0,0,0,0,0,0,0,0,0,0,0],"trees":[{"base_weights":[3.3918038E-4,2.0302827E0,-1.158213E0,-7.4631447E-1,2.354198E0,-1.4685433E0,4.3743667E-1,-1.2083881E0,1.3338824E-1,2.417634E0,-4.335679E-1,-8.9301854E-1,-1.4912039E0,1.1339713E-1,8.671362E-1,-1.321061E0,1.8987104E0,8.6713326E-1,-1.1108414E-1,2.5001817E0,8.0570745E-1,-1.0878257E0,2.9523947E0,-1.4165553E0,-4.3355998E-1,-5.3080386E-1,4.2247042E-1,-1.3401364E0,2.3419952E0,2.5296292E0,-1.1296799E0,-4.3070605E-1,1.3393929E0,2.605795E0,1.3889229E0,-1.1422479E0,1.1604527E0,-4.073407E-1,-1.4366622E0,8.671331E-1,-4.3338877E-1,-1.0752654E0,-1.4742237E0,-3.190128E-1,-1.2136517E0,8.6713606E-1,4.651603E-2,-1.4230161E0,-9.516534E-1,2.6022704E0,-4.333342E-1,2.795858E0,-9.562859E-1,1.8397548E0,-4.335544E-1,4.1377697E-2,-1.075544E0,1.7705355E0,-5.167358E-1,2.6246457E0,-6.755012E-2,-4.4877406E-2,2.5573702E0,6.318462E-1,-1.3866287E0,1.7877073E0,-4.369514E-2,-9.9304837E-1,1.3376812E0,-1.4439301E0,1.3152117E0,2.943192E0,-1.2056757E0,-1.475443E0,1.3596423E-2,-3.278911E-2,-8.132972E-1,-1.3759656E0,-1.0635713E0,6.696183E-1,-5.3008807E-1,-1.9115122E-1,-1.4408778E0,8.671187E-1,-1.133684E0,-4.3323183E-1,2.8051589E0,2.852749E0,-4.3335712E-1,-4.2268506E-1,1.1374083E0,8.3173347E-1,-4.331003E-1,4.5013076E-1,-4.3300664E-1,-1.4429517E-1,-1.3294402E0,2.160518E0,4.8157474E-1,-1.107323E0,2.6853225E0,2.6383936E0,-5.3152055E-1,-3.1095654E-1,2.3119156E0,1.885805E0,-9.560572E-1,1.9512697E0,2.9174137E0,-6.4621764E-1,1.6682259E0,8.664029E-1,-1.3959172E0,1.9393593E0,-1.3905149E0,-1.35206E0,2.9741365E-1,-1.0880044E0,8.671075E-1,2.2671208E0,-1.2350724E0,-1.4929587E0,-1.1030664E0,2.8566406E0,-4.334122E-1,-4.3203357E-1,8.5704726E-1,-1.2412992E0,2.869912E0,-1.433032E0,-4.3356818E-1,8.6687857E-1,-4.3349448E-1,-7.9036E-1,1.7980224E-1,-6.257734E-1,-1.4186693E0,8.666209E-1,-1.3841695E0,9.2981166E-1,-1.2751497E0,8.671361E-1,-6.4223784E-1,-1.0387769E0,-3.9570296E-1,-4.259315E-1,1.1988163E0,-1.485711E0,-1.2714237E0,-9.2233384E-1,-1.4668059E0,-4.323739E-1,2.8658879E0,2.9283032E0,9.487979E-1,8.665754E-1,-4.3311977E-1,9.972511E-1,-6.4023954E-1,8.824565E-1,-9.6272373E-1,-1.1620857E0,-4.3288448E-1,2.3322382E0,7.313783E-1,2.1839643E0,-2.8090078E-1,3.36446E-1,-1.4316723E0,-4.3285105E-1,2.861167E0,2.7188342E0,2.1741872E0,-1.2874869E0,-1.0428121E-1,4.3771034E-1,-8.0211985E-1,-1.2296792E0,2.6835678E0,2.453489E0,-4.703793E-1,-1.1522207E0,2.0422711E0,2.3709586E0,-6.088865E-1,2.9207294E0,-3.1512916E-1,-1.1744796E0,2.0849717E0,2.306736E0,-4.3349966E-1,-1.2545079E0,-4.3356675E-1,2.3732886E0,7.5434816E-1,-1.4679126E0,1.6571879E0,8.6654043E-1,-1.3777878E0,8.713626E-1,-5.2652854E-1,-1.4638355E0,-6.2588215E-1,-1.0886021E0,2.65268E0,-1.3626235E0,8.6687857E-1,-4.3352532E-1,-1.3795527E0,6.850204E-1,-1.3540858E0,-1.722749E-1,8.6697876E-1,-1.263698E0,8.6705315E-1,2.9756303E0,-4.323739E-1,-1.4376751E0,8.669512E-1,8.670678E-1,-8.484577E-1,8.671277E-1,8.312425E-2,-4.2023584E-1,-1.0981333E0,8.6637366E-1,-1.4282886E0,-1.2483201E0,-1.436983E0,2.7907398E0,-8.774974E-1,-1.0287286E0,-1.39621E0,-1.3422783E-1,-9.9292547E-1,-9.5501703E-1,-1.4313943E0,2.008791E0,-4.8060092E-1,2.3942907E0,-1.3391502E0,-1.4898409E0,-5.777295E-1,8.670786E-1,-1.331832E0,-5.793529E-1,-1.3646995E0,-1.4784577E0,-4.1983452E-1,2.9213262E0,-4.3222496E-1,2.9390893E0,-4.323739E-1,2.7345772E0,-4.3339455E-1,1.7766149E0,3.7221366E-1,-8.835965E-1,4.9942452E-3,1.3021723E0,-4.3353716E-1,9.274492E-1,-1.327693E0,-1.1977793E0,2.0566862E0,2.465796E0,9.713854E-1,9.720613E-2,2.7961702E0,2.378128E0,-4.3327728E-1,5.070684E-1,-1.2666675E0,-4.335094E-1,2.1334255E0,2.4048818E-2,-4.3027896E-1,2.9739497E0,-4.323739E-1,1.4082611E0,2.737972E0,3.9254823E-1,2.26232E0,2.4837904E0,-1.4368664E0,-1.0365831E0,4.2359787E-1,-1.1990113E0,9.2936015E-1,1.54048E0,-1.0658622E0,-4.0422425E-1,1.3535428E-1,2.862075E0,-4.3329218E-1,2.644604E0,1.7365271E-1,1.1444271E0,-1.0368598E0,-1.3953565E0,-8.8801765E-1,-4.335315E-1,2.442687E0,2.8909206E0,1.3661052E0,-8.87503E-1,2.6885877E0,2.926217E0,6.806033E-1,-1.4653155E-1,-1.4462502E0,8.6694175E-1,-4.331377E-1,-4.0079704E-1,2.5066893E0,7.498899E-1,-1.3379284E0,2.8386323E0,1.8586268E0,2.2037702E0,-9.7885436E-1,-7.418661E-1,-4.3356326E-1,2.6846516E0,-4.3279988E-1,-4.2750475E-1,-1.1254646E0,4.3605503E-1,8.671273E-1,-6.8696484E-2,-1.3647956E0,-1.4827319E0,-8.3994544E-1,-8.6475676E-1,1.1511656E0,6.836645E-1,-4.3354988E-1,-4.3352428E-1,2.821152E0,-1.16923265E-1,-1.4839051E0,-8.7601507E-1,-4.3356463E-1,2.093455E0,-4.3354422E-1,-4.331086E-1,-1.0205255E0,-4.3316278E-1,-1.0108215E0,3.450396E-1,8.6708444E-1,-1.4925377E0,-1.3528955E0,-5.726022E-1,-1.1124928E0,2.6622036E-1,-7.7109367E-1,-8.732746E-1,-1.1018158E-1,2.4668868E-1,-1.1748588E0,-1.4575241E0,-1.0286998E0,-7.3384243E-1,-1.3717383E0,8.644174E-1,-1.4391696E0,8.671167E-1,-4.3333915E-1,1.1266501E0,-1.3809677E0,8.6696905E-1,-1.1021537E0,-1.4207069E0,-3.895586E-1,-7.5299007E-1,1.6810292E-1,-8.679323E-1,-1.3801259E0,-4.2485338E-1,-8.694648E-1,-1.4851826E0,-9.1161495E-1,-1.0022707E0,2.157104E0,-2.8586397E-1,-9.2548627E-1,-4.331838E-1,7.542214E-1,-4.3352395E-1,8.6502033E-1,-4.3195564E-1,-4.047813E-1,6.2470675E-1,-4.3353269E-1,-3.984307E-1,9.1164306E-2,-6.970774E-2,-4.2707762E-1,-2.6759216E-1,-4.2029628E-1,-4.330563E-1,-3.9476272E-1,6.423675E-1,-4.3341658E-1,5.241873E-1,8.5433275E-1,8.5949993E-1,7.3064137E-1,2.1612382E-1,8.66882E-1,5.7033193E-1,-9.9996984E-2,-1.7294398E-1,3.890448E-1,-2.7222323E-1,8.669334E-1,-2.3565164E-1,2.6991445E-1,1.8418664E-1,7.501063E-1,7.2030103E-1,-2.8014633E-1,-3.988786E-1,8.6647874E-1,-3.5006866E-1,8.665007E-1,-2.635845E-1,8.351867E-1,7.235429E-1,-4.3338877E-1,-3.4832934E-1,6.40044E-1,4.0427768E-1,-3.527505E-1,-4.317786E-1,8.4682137E-1,7.322241E-1,-4.331696E-1,3.359342E-1,-3.0013257E-1,-4.041336E-1,-1.5968727E-1,7.9386127E-1,-4.331696E-1,-4.3327728E-1,6.584203E-1,3.450396E-1,8.670808E-1,-8.480985E-2,5.2253103E-1,7.232023E-1,8.110633E-1,-1.8882257E-1,3.3473483E-1,7.019407E-1,4.584377E-1,-4.324931E-1,8.5179347E-1,-4.2437732E-1,8.66015E-1,3.6505476E-1,-3.7850046E-1,-3.6368927E-1,2.6143003E-1,7.815198E-2,-4.097623E-1,4.009927E-1,-3.8665503E-1,-7.046055E-2,8.6708134E-1,3.397833E-1,-3.3489245E-1,4.3177858E-1,-4.3142205E-1,-4.32672E-1,8.4404343E-1,-3.420038E-1,7.828334E-1,5.1187676E-1,-4.2780572E-1,4.8110828E-1,-4.1275716E-1,-4.25531E-1,1.0365022E-2,-2.079179E-1,-4.1316155E-1,8.6710036E-1,-2.8553095E-1,-4.3348277E-1,7.642758E-1,8.3716893E-1,-4.3307903E-1,-9.8481424E-2,7.004816E-1,2.5160229E-2,-3.9355022E-1,8.630124E-1,-2.4060932E-1,7.84874E-1,8.577024E-1,7.5212014E-1,-4.1242194E-1,-4.1961923E-1,8.666473E-1,-4.2571136E-1,3.450396E-1,7.5676095E-1,-4.330302E-1,-4.334647E-1,8.66953E-1,-4.2898688E-1,-1.4235868E-1,1.7611681E-1,8.3065844E-1,8.66978E-1,2.1154103E-1,7.9221004E-1,6.5436326E-2,-3.196098E-1,8.670316E-1,-4.334187E-1,4.7077042E-1,3.7815845E-1,8.6659145E-1,8.666928E-1,-3.593347E-1,4.0853396E-1,-3.590775E-2,-1.1987408E-1,8.671025E-1,-2.2438513E-1,-4.314728E-1,-3.809482E-1,-4.3327886E-1,-4.335373E-1,4.079634E-1,-1.5993272E-1,-4.0371245E-1,-4.2829132E-1,7.1714073E-1,-4.1510174E-1,8.668429E-1,-4.3339455E-1,8.2839733E-1,7.5999594E-1,-4.3349397E-1,-2.8893444E-1,-4.335633E-1,6.575733E-1,-4.335502E-1,-4.334676E-1,7.941077E-1,-4.1762063E-1,3.656121E-2,-3.8043934E-1,-8.856675E-2,-4.024942E-1,-4.3345144E-1,-2.6987714E-1,-4.2179206E-1,-2.2209907E-1,2.6055065E-1,-2.1671994E-1,-3.8457665E-1,5.602334E-2,8.623263E-1,-2.8854015E-1,1.3260046E-1,-9.465099E-2,-3.2802537E-1,6.869843E-1,-1.956213E-1,5.964734E-1,-4.3353352E-1,-3.797541E-1,-1.5242529E-1,-3.4908205E-1,-4.2912102E-1,1.21916056E-1,-4.3355003E-1,-4.3355203E-1,1.5093274E-1,-4.0161988E-1,8.6607724E-1,-3.9667696E-1,-4.284444E-1,-4.3344444E-1,8.6698E-1,-4.2641675E-1,-2.0619838E-1,-1.5822347E-1,-4.3143943E-1,-3.676498E-1,-4.2505953E-1,3.8332224E-1,-4.3351066E-1,-4.3144116E-1,-1.6814287E-1,8.584903E-1,-5.0420193E-3,-3.839306E-1,-2.1505696E-1,-4.1202304E-1,-2.8263706E-1,8.670784E-1,-2.6669246E-1,-4.3284205E-1,-1.9262107E-1,7.400354E-1,-4.33546E-1,6.3434553E-1,-4.335084E-1,6.6475713E-1,-2.9353166E-2,-1.7258814E-1,4.369328E-1,-3.0415666E-1,-6.4544976E-2],"categories":[],"categories_nodes":[],"categories_segments":[],"categories_sizes":[],"default_left":[0,0,0,0,0,0,0,0,0,0,0,0,0,0,0,0,0,0,0,0,0,0,0,0,0,0,0,0,0,0,0,0,0,0,0,0,0,0,0,0,0,0,0,0,0,0,0,0,0,0,0,0,0,0,0,0,0,0,0,0,0,0,0,0,0,0,0,0,0,0,0,0,0,0,0,0,0,0,0,0,0,0,0,0,0,0,0,0,0,0,0,0,0,0,0,0,0,0,0,0,0,0,0,0,0,0,0,0,0,0,0,0,0,0,0,0,0,0,0,0,0,0,0,0,0,0,0,0,0,0,0,0,0,0,0,0,0,0,0,0,0,0,0,0,0,0,0,0,0,0,0,0,0,0,0,0,0,0,0,0,0,0,0,0,0,0,0,0,0,0,0,0,0,0,0,0,0,0,0,0,0,0,0,0,0,0,0,0,0,0,0,0,0,0,0,0,0,0,0,0,0,0,0,0,0,0,0,0,0,0,0,0,0,0,0,0,0,0,0,0,0,0,0,0,0,0,0,0,0,0,0,0,0,0,0,0,0,0,0,0,0,0,0,0,0,0,0,0,0,0,0,0,0,0,0,0,0,0,0,0,0,0,0,0,0,0,0,0,0,0,0,0,0,0,0,0,0,0,0,0,0,0,0,0,0,0,0,0,0,0,0,0,0,0,0,0,0,0,0,0,0,0,0,0,0,0,0,0,0,0,0,0,0,0,0,0,0,0,0,0,0,0,0,0,0,0,0,0,0,0,0,0,0,0,0,0,0,0,0,0,0,0,0,0,0,0,0,0,0,0,0,0,0,0,0,0,0,0,0,0,0,0,0,0,0,0,0,0,0,0,0,0,0,0,0,0,0,0,0,0,0,0,0,0,0,0,0,0,0,0,0,0,0,0,0,0,0,0,0,0,0,0,0,0,0,0,0,0,0,0,0,0,0,0,0,0,0,0,0,0,0,0,0,0,0,0,0,0,0,0,0,0,0,0,0,0,0,0,0,0,0,0,0,0,0,0,0,0,0,0,0,0,0,0,0,0,0,0,0,0,0,0,0,0,0,0,0,0,0,0,0,0,0,0,0,0,0,0,0,0,0,0,0,0,0,0,0,0,0,0,0,0,0,0,0,0,0,0,0,0,0,0,0,0,0,0,0,0,0,0,0,0,0,0,0,0,0,0,0,0,0,0,0,0,0,0,0,0,0,0,0,0,0,0,0,0,0,0,0,0,0,0,0,0,0,0,0,0,0,0,0,0,0,0,0,0,0,0,0,0,0,0,0,0,0,0,0,0,0,0,0,0,0,0,0,0,0,0,0,0,0,0,0,0,0,0,0,0,0,0,0,0,0,0,0,0,0,0,0,0,0,0,0,0,0,0,0,0,0,0,0,0,0,0,0,0,0,0,0],"id":0,"left_children":[1,3,5,7,9,11,13,15,17,19,-1,21,23,25,-1,27,29,-1,31,33,35,37,39,41,-1,43,45,47,49,51,53,55,57,59,61,63,65,67,69,-1,-1,71,73,75,77,-1,79,81,83,85,-1,87,89,91,-1,93,95,97,99,101,103,105,107,109,111,113,115,117,119,121,123,125,127,129,131,133,135,137,139,141,143,145,147,-1,149,-1,151,153,-1,-1,155,-1,-1,157,-1,159,161,163,165,167,169,171,173,175,177,179,181,183,185,187,189,-1,191,193,195,197,199,201,-1,203,205,207,209,211,-1,-1,-1,213,215,217,-1,-1,-1,219,221,223,225,-1,227,229,231,-1,233,235,237,-1,239,241,243,245,247,-1,249,251,253,-1,-1,255,257,259,261,263,-1,265,267,269,271,273,275,-1,277,279,281,283,285,287,289,291,293,295,297,299,301,303,305,307,-1,309,311,313,-1,315,-1,317,319,321,323,-1,325,327,329,331,333,335,337,339,-1,-1,341,343,345,-1,-1,347,-1,349,-1,351,-1,-1,353,-1,355,357,359,-1,361,363,365,367,369,371,373,375,377,379,381,383,385,387,389,391,393,-1,395,397,399,401,403,405,-1,407,-1,409,-1,411,413,415,417,419,-1,421,423,425,427,429,431,433,435,437,-1,439,441,-1,443,445,-1,447,-1,449,451,453,455,457,459,461,463,465,467,469,471,-1,473,475,-1,477,479,481,483,485,487,-1,489,491,493,495,497,499,501,503,505,-1,-1,-1,507,509,511,513,515,517,519,521,-1,523,-1,-1,525,527,-1,529,531,533,535,537,539,541,-1,-1,543,545,547,549,-1,551,-1,-1,553,-1,555,-1,-1,557,559,561,563,565,567,569,571,573,575,577,579,581,583,-1,585,-1,-1,587,589,-1,591,593,595,597,599,601,603,-1,605,607,609,611,613,615,617,-1,-1,-1,-1,-1,-1,-1,-1,-1,-1,-1,-1,-1,-1,-1,-1,-1,-1,-1,-1,-1,-1,-1,-1,-1,-1,-1,-1,-1,-1,-1,-1,-1,-1,-1,-1,-1,-1,-1,-1,-1,-1,-1,-1,-1,-1,-1,-1,-1,-1,-1,-1,-1,-1,-1,-1,-1,-1,-1,-1,-1,-1,-1,-1,-1,-1,-1,-1,-1,-1,-1,-1,-1,-1,-1,-1,-1,-1,-1,-1,-1,-1,-1,-1,-1,-1,-1,-1,-1,-1,-1,-1,-1,-1,-1,-1,-1,-1,-1,-1,-1,-1,-1,-1,-1,-1,-1,-1,-1,-1,-1,-1,-1,-1,-1,-1,-1,-1,-1,-1,-1,-1,-1,-1,-1,-1,-1,-1,-1,-1,-1,-1,-1,-1,-1,-1,-1,-1,-1,-1,-1,-1,-1,-1,-1,-1,-1,-1,-1,-1,-1,-1,-1,-1,-1,-1,-1,-1,-1,-1,-1,-1,-1,-1,-1,-1,-1,-1,-1,-1,-1,-1,-1,-1,-1,-1,-1,-1,-1,-1,-1,-1,-1,-1,-1,-1,-1,-1,-1,-1,-1,-1,-1,-1,-1,-1,-1,-1,-1,-1,-1,-1,-1,-1,-1,-1,-1,-1,-1,-1,-1,-1,-1,-1,-1,-1,-1,-1,-1,-1,-1,-1,-1,-1,-1,-1,-1,-1,-1,-1,-1,-1],"loss_changes":[3.0454162E6,4.23176E5,4.0823188E5,1.9981213E4,1.0302125E5,9.001125E3,1.11461125E5,1.1282496E4,1.186323E4,5.5159E4,0E0,1.9586184E4,4.34625E2,2.3725832E4,0E0,2.1730938E3,2.154833E3,0E0,7.231198E3,4.628175E4,1.3955087E4,5.907172E3,2.6712793E2,1.3736562E3,0E0,5.5874473E3,7.803343E4,9.961406E2,1.6109625E2,8.661992E2,2.1380737E2,3.890865E3,2.2538867E3,1.8148E4,5.7338773E4,1.3488433E3,1.2903342E4,8.619716E3,3.2905078E2,0E0,0E0,5.286959E3,1.0830469E2,4.171966E3,2.2279199E2,0E0,2.524924E4,5.610469E2,3.9130635E3,1.2557355E2,0E0,2.1190479E2,7.0177246E1,7.470837E1,0E0,4.643299E3,1.2773018E3,1.1488784E3,1.00397894E3,1.55165E4,1.4604292E3,2.7034986E4,4.1151797E3,4.9892957E2,1.11364746E2,5.413867E3,2.6113254E3,2.3940776E3,5.0678135E3,2.7420312E2,1.8804602E2,3.0845947E1,1.4187119E3,6.2132812E1,2.2092603E2,3.0076494E3,1.2276162E3,1.5769238E2,2.0042886E3,1.032588E5,2.4951572E3,6.4965015E2,1.909414E2,0E0,3.6612842E2,0E0,3.7576416E1,1.23086426E2,0E0,0E0,6.3255253E1,0E0,0E0,3.4785032E3,0E0,9.7254095E2,1.19473145E2,4.3060352E2,6.891216E2,2.0990204E2,6.0827637E1,1.32955E4,5.0090204E2,8.4117834E2,3.0802283E2,6.59066E3,6.1406885E3,7.5509023E3,1.5720312E2,2.4336433E2,4.2076562E2,0E0,4.0145508E1,5.512789E3,1.2067938E2,1.3543433E2,2.1947898E3,1.0711738E3,0E0,2.0143701E3,3.0377844E2,1.1197266E1,9.261223E2,1.3820663E1,0E0,0E0,0E0,9.202051E2,3.9101013E1,4.5022656E2,0E0,0E0,0E0,9.01105E2,3.9759307E3,8.015947E2,1.0865576E2,0E0,3.1454102E1,1.5336807E3,1.2815283E2,0E0,3.850038E3,2.5082715E2,5.8939727E3,0E0,5.3065436E2,7.452344E1,1.3568428E3,4.8274243E2,2.4619629E1,0E0,3.4301147E1,3.9300293E1,1.4285513E2,0E0,0E0,1.8913647E3,3.0591626E2,5.1329913E2,4.4427563E2,2.44469E2,0E0,2.8468945E2,2.464634E2,1.1745459E2,2.8481717E2,2.7133673E2,3.0344788E1,0E0,3.9008118E1,7.61075E3,8.257047E3,3.154925E2,4.8766376E2,7.2923914E2,8.5345544E2,5.1245804E0,1.5814307E2,1.7300566E3,8.751256E2,6.2947266E2,9.0933105E2,3.154629E3,9.0935E2,1.4529688E2,0E0,3.9480988E1,8.959563E1,1.2786255E2,0E0,1.9344702E2,0E0,1.8793633E3,7.218801E3,1.1607544E1,4.108793E1,0E0,3.0714355E1,2.5347527E3,7.313231E2,4.0089844E1,1.1742438E3,1.1697214E2,9.769551E2,8.2486755E1,0E0,0E0,4.9839233E1,7.8167224E2,8.70918E1,0E0,0E0,5.723711E2,0E0,3.5401611E0,0E0,1.0163281E2,0E0,0E0,2.9355396E2,0E0,2.2051924E3,8.0811847E2,2.583025E2,0E0,2.9802246E1,7.795093E1,3.0589844E1,2.0164636E2,2.3343336E2,4.1862073E2,7.103711E1,1.6510479E3,6.1875684E2,2.7687695E2,3.7484375E1,4.3974487E2,2.4160903E3,9.955902E1,3.9001442E1,8.089844E0,2.2734227E2,0E0,3.9806934E2,5.4439703E2,5.4505615E1,4.4350586E0,6.3416924E1,5.300049E0,0E0,1.1606445E1,0E0,9.913788E0,0E0,7.208828E2,2.0363092E3,3.1972498E2,4.0651297E2,3.7521936E2,0E0,3.0929694E2,1.2210614E2,1.1779932E2,5.7709824E1,2.1166309E2,3.7876233E2,2.4694711E2,2.5359253E1,9.3833496E1,0E0,2.0633206E2,1.5291412E1,0E0,9.256062E1,4.732603E1,0E0,3.5368652E0,0E0,2.9693047E3,4.80125E3,1.9844049E3,5.6305E3,3.9352753E1,7.4843994E1,2.2481195E2,5.11666E2,6.725357E1,7.235047E2,3.6397394E2,2.5812134E2,0E0,5.4247336E0,5.1400146E1,0E0,8.9381445E2,8.1123505E2,3.3238016E2,3.3073853E2,1.1743652E2,1.822625E3,0E0,4.5747778E2,9.4359375E1,3.7156118E3,4.2164142E2,8.0696655E1,1.02234375E2,1.1701825E2,1.2134904E2,7.8482056E0,0E0,0E0,0E0,7.331848E1,2.3394029E2,1.3729224E2,3.230703E2,4.789835E3,1.6617109E3,6.6065674E2,3.7933067E1,0E0,4.0995865E0,0E0,0E0,1.6722104E2,1.2436313E3,0E0,1.3086299E3,5.0677246E1,8.835449E0,1.4859357E2,4.0397803E2,1.1477479E3,1.483717E2,0E0,0E0,2.5991602E2,1.8400218E2,3.863037E0,3.119566E2,0E0,3.628966E2,0E0,0E0,2.659489E2,0E0,9.981841E2,0E0,0E0,9.355469E0,3.828164E2,5.6885095E2,1.6283691E2,2.284004E3,6.9526184E2,3.3374182E2,4.812842E3,4.287833E2,2.1308838E2,1.6081055E1,1.1894087E2,2.2859424E2,7.670862E1,0E0,9.074707E0,0E0,0E0,2.2847583E2,1.1629974E1,0E0,3.0109692E2,2.0846191E1,1.3039467E2,3.6697607E2,3.0824292E3,5.5128516E2,5.689209E1,0E0,1.1096755E3,1.2236572E1,2.569292E2,7.3537125E1,3.0254395E2,1.0851693E4,7.559385E2,0E0,0E0,0E0,0E0,0E0,0E0,0E0,0E0,0E0,0E0,0E0,0E0,0E0,0E0,0E0,0E0,0E0,0E0,0E0,0E0,0E0,0E0,0E0,0E0,0E0,0E0,0E0,0E0,0E0,0E0,0E0,0E0,0E0,0E0,0E0,0E0,0E0,0E0,0E0,0E0,0E0,0E0,0E0,0E0,0E0,0E0,0E0,0E0,0E0,0E0,0E0,0E0,0E0,0E0,0E0,0E0,0E0,0E0,0E0,0E0,0E0,0E0,0E0,0E0,0E0,0E0,0E0,0E0,0E0,0E0,0E0,0E0,0E0,0E0,0E0,0E0,0E0,0E0,0E0,0E0,0E0,0E0,0E0,0E0,0E0,0E0,0E0,0E0,0E0,0E0,0E0,0E0,0E0,0E0,0E0,0E0,0E0,0E0,0E0,0E0,0E0,0E0,0E0,0E0,0E0,0E0,0E0,0E0,0E0,0E0,0E0,0E0,0E0,0E0,0E0,0E0,0E0,0E0,0E0,0E0,0E0,0E0,0E0,0E0,0E0,0E0,0E0,0E0,0E0,0E0,0E0,0E0,0E0,0E0,0E0,0E0,0E0,0E0,0E0,0E0,0E0,0E0,0E0,0E0,0E0,0E0,0E0,0E0,0E0,0E0,0E0,0E0,0E0,0E0,0E0,0E0,0E0,0E0,0E0,0E0,0E0,0E0,0E0,0E0,0E0,0E0,0E0,0E0,0E0,0E0,0E0,0E0,0E0,0E0,0E0,0E0,0E0,0E0,0E0,0E0,0E0,0E0,0E0,0E0,0E0,0E0,0E0,0E0,0E0,0E0,0E0,0E0,0E0,0E0,0E0,0E0,0E0,0E0,0E0,0E0,0E0,0E0,0E0,0E0,0E0,0E0,0E0,0E0,0E0,0E0,0E0,0E0,0E0,0E0,0E0,0E0,0E0,0E0,0E0,0E0,0E0,0E0,0E0,0E0,0E0,0E0,0E0,0E0,0E0,0E0,0E0,0E0],"parents":[2147483647,0,0,1,1,2,2,3,3,4,4,5,5,6,6,7,7,8,8,9,9,11,11,12,12,13,13,15,15,16,16,18,18,19,19,20,20,21,21,22,22,23,23,25,25,26,26,27,27,28,28,29,29,30,30,31,31,32,32,33,33,34,34,35,35,36,36,37,37,38,38,41,41,42,42,43,43,44,44,46,46,47,47,48,48,49,49,51,51,52,52,53,53,55,55,56,56,57,57,58,58,59,59,60,60,61,61,62,62,63,63,64,64,65,65,66,66,67,67,68,68,69,69,70,70,71,71,72,72,73,73,74,74,75,75,76,76,77,77,78,78,79,79,80,80,81,81,82,82,84,84,86,86,87,87,90,90,93,93,95,95,96,96,97,97,98,98,99,99,100,100,101,101,102,102,103,103,104,104,105,105,106,106,107,107,108,108,109,109,110,110,112,112,113,113,114,114,115,115,116,116,117,117,119,119,120,120,121,121,122,122,123,123,127,127,128,128,129,129,133,133,134,134,135,135,136,136,138,138,139,139,140,140,142,142,143,143,144,144,146,146,147,147,148,148,149,149,150,150,152,152,153,153,154,154,157,157,158,158,159,159,160,160,161,161,163,163,164,164,165,165,166,166,167,167,168,168,170,170,171,171,172,172,173,173,174,174,175,175,176,176,177,177,178,178,179,179,180,180,181,181,182,182,183,183,184,184,185,185,187,187,188,188,189,189,191,191,193,193,194,194,195,195,196,196,198,198,199,199,200,200,201,201,202,202,203,203,204,204,205,205,208,208,209,209,210,210,213,213,215,215,217,217,220,220,222,222,223,223,224,224,226,226,227,227,228,228,229,229,230,230,231,231,232,232,233,233,234,234,235,235,236,236,237,237,238,238,239,239,240,240,241,241,242,242,244,244,245,245,246,246,247,247,248,248,249,249,251,251,253,253,255,255,256,256,257,257,258,258,259,259,261,261,262,262,263,263,264,264,265,265,266,266,267,267,268,268,269,269,271,271,272,272,274,274,275,275,277,277,279,279,280,280,281,281,282,282,283,283,284,284,285,285,286,286,287,287,288,288,289,289,290,290,292,292,293,293,295,295,296,296,297,297,298,298,299,299,300,300,302,302,303,303,304,304,305,305,306,306,307,307,308,308,309,309,310,310,314,314,315,315,316,316,317,317,318,318,319,319,320,320,321,321,323,323,326,326,327,327,329,329,330,330,331,331,332,332,333,333,334,334,335,335,338,338,339,339,340,340,341,341,343,343,346,346,348,348,351,351,352,352,353,353,354,354,355,355,356,356,357,357,358,358,359,359,360,360,361,361,362,362,363,363,364,364,366,366,369,369,370,370,372,372,373,373,374,374,375,375,376,376,377,377,378,378,380,380,381,381,382,382,383,383,384,384,385,385,386,386],"right_children":[2,4,6,8,10,12,14,16,18,20,-1,22,24,26,-1,28,30,-1,32,34,36,38,40,42,-1,44,46,48,50,52,54,56,58,60,62,64,66,68,70,-1,-1,72,74,76,78,-1,80,82,84,86,-1,88,90,92,-1,94,96,98,100,102,104,106,108,110,112,114,116,118,120,122,124,126,128,130,132,134,136,138,140,142,144,146,148,-1,150,-1,152,154,-1,-1,156,-1,-1,158,-1,160,162,164,166,168,170,172,174,176,178,180,182,184,186,188,190,-1,192,194,196,198,200,202,-1,204,206,208,210,212,-1,-1,-1,214,216,218,-1,-1,-1,220,222,224,226,-1,228,230,232,-1,234,236,238,-1,240,242,244,246,248,-1,250,252,254,-1,-1,256,258,260,262,264,-1,266,268,270,272,274,276,-1,278,280,282,284,286,288,290,292,294,296,298,300,302,304,306,308,-1,310,312,314,-1,316,-1,318,320,322,324,-1,326,328,330,332,334,336,338,340,-1,-1,342,344,346,-1,-1,348,-1,350,-1,352,-1,-1,354,-1,356,358,360,-1,362,364,366,368,370,372,374,376,378,380,382,384,386,388,390,392,394,-1,396,398,400,402,404,406,-1,408,-1,410,-1,412,414,416,418,420,-1,422,424,426,428,430,432,434,436,438,-1,440,442,-1,444,446,-1,448,-1,450,452,454,456,458,460,462,464,466,468,470,472,-1,474,476,-1,478,480,482,484,486,488,-1,490,492,494,496,498,500,502,504,506,-1,-1,-1,508,510,512,514,516,518,520,522,-1,524,-1,-1,526,528,-1,530,532,534,536,538,540,542,-1,-1,544,546,548,550,-1,552,-1,-1,554,-1,556,-1,-1,558,560,562,564,566,568,570,572,574,576,578,580,582,584,-1,586,-1,-1,588,590,-1,592,594,596,598,600,602,604,-1,606,608,610,612,614,616,618,-1,-1,-1,-1,-1,-1,-1,-1,-1,-1,-1,-1,-1,-1,-1,-1,-1,-1,-1,-1,-1,-1,-1,-1,-1,-1,-1,-1,-1,-1,-1,-1,-1,-1,-1,-1,-1,-1,-1,-1,-1,-1,-1,-1,-1,-1,-1,-1,-1,-1,-1,-1,-1,-1,-1,-1,-1,-1,-1,-1,-1,-1,-1,-1,-1,-1,-1,-1,-1,-1,-1,-1,-1,-1,-1,-1,-1,-1,-1,-1,-1,-1,-1,-1,-1,-1,-1,-1,-1,-1,-1,-1,-1,-1,-1,-1,-1,-1,-1,-1,-1,-1,-1,-1,-1,-1,-1,-1,-1,-1,-1,-1,-1,-1,-1,-1,-1,-1,-1,-1,-1,-1,-1,-1,-1,-1,-1,-1,-1,-1,-1,-1,-1,-1,-1,-1,-1,-1,-1,-1,-1,-1,-1,-1,-1,-1,-1,-1,-1,-1,-1,-1,-1,-1,-1,-1,-1,-1,-1,-1,-1,-1,-1,-1,-1,-1,-1,-1,-1,-1,-1,-1,-1,-1,-1,-1,-1,-1,-1,-1,-1,-1,-1,-1,-1,-1,-1,-1,-1,-1,-1,-1,-1,-1,-1,-1,-1,-1,-1,-1,-1,-1,-1,-1,-1,-1,-1,-1,-1,-1,-1,-1,-1,-1,-1,-1,-1,-1,-1,-1,-1,-1,-1,-1,-1,-1,-1,-1,-1,-1,-1,-1],"split_conditions":[-6.243914E-1,-1.31480275E-2,-1.9521321E-1,-1.3148541E-2,1.0228904E1,-7.9656325E-2,-1.125031E0,2.0057116E0,-6.8495196E-1,4.5825353E-1,-4.335679E-1,-1.6093667E0,4.650787E-1,4.3128917E-1,8.671362E-1,-2.7040136E-1,4.7041208E-1,8.6713326E-1,-1.853844E-2,1.2507374E0,-4.8267663E-1,-2.7667677E-1,4.7996485E-1,-9.49103E-1,-4.3355998E-1,1.0098138E0,7.7320695E-2,-1.3148663E-2,1.0228904E1,-1.9897455E-2,-1.0998225E0,-1.5716046E-1,6.318895E-1,1.4783088E0,-2.7431312E-1,5.5908184E-2,-4.582521E-1,-1.9898053E-2,-1.3145975E-2,8.671331E-1,-4.3338877E-1,5.5908184E-2,2.039213E0,7.060504E-1,-4.2612398E-1,8.6713606E-1,4.601622E0,-1.5751864E0,-8.2260317E-1,-1.8618718E-2,-4.333342E-1,1.0228904E1,-1.8544354E-2,1.0228904E1,-4.335544E-1,4.827443E-1,-1.260387E0,9.583583E-1,-2.721164E-1,1.8335168E0,-2.739449E-1,-1.2399126E0,-2.7265632E-1,-2.7683145E-1,-5.914073E-1,1.5061079E0,-2.764107E-1,-2.769831E-1,-2.4118028E0,4.2762715E-1,1.6326004E0,-1.3146601E-2,1.3561926E0,1.94814E-1,-1.3520603E0,-8.7637305E-1,-1.8180551E-2,-1.1255692E0,1.0164504E0,-7.855097E-2,-8.414195E-1,-1.1149133E0,-1.3148743E-2,8.671187E-1,4.5879483E-1,-4.3323183E-1,-1.1203759E0,9.6369624E-1,-4.3335712E-1,-4.2268506E-1,-1.853844E-2,8.3173347E-1,-4.331003E-1,9.583583E-1,-4.3300664E-1,1.2507374E0,1.2507374E0,1.2402687E0,-1.1250902E0,1.0747502E0,-1.31484205E-2,1.1870711E0,-3.9135846E-1,-8.615025E-1,-1.3123533E-2,9.6369624E-1,1.7785481E0,9.6369624E-1,1.8335168E0,-1.2838825E0,-1.2838825E0,8.664029E-1,1.4570059E0,-2.7700704E-1,-1.7211242E-2,-3.8923788E-1,-1.1250902E0,-2.5131664E0,8.671075E-1,2.1109517E0,-2.769831E-1,2.1686373E0,-8.9236873E-1,-1.861826E-2,-4.334122E-1,-4.3203357E-1,8.5704726E-1,-1.0290366E0,6.6972184E-1,1.1681944E-1,-4.3356818E-1,8.6687857E-1,-4.3349448E-1,-5.8589023E-1,-7.033826E-1,1.3561926E0,1.2507374E0,8.666209E-1,-3.1052232E-1,-1.1255221E0,-3.0229092E-2,8.671361E-1,-1.9870333E-2,4.0249273E-1,-7.170086E-1,-4.259315E-1,9.583583E-1,1.9494253E0,-9.670659E-1,9.583583E-1,-2.719578E-1,-4.323739E-1,9.374391E-1,-2.7634647E-1,-2.7656052E-1,8.665754E-1,-4.3311977E-1,-1.1250902E0,9.751411E-1,1.0228904E1,-1.5837442E0,-2.7287588E-1,-4.3288448E-1,1.2208397E0,-2.7387905E-1,1.2303187E0,-6.5326434E-1,-2.746476E-1,-1.5801111E0,-4.3285105E-1,1.0228904E1,-1.4521017E0,-5.8307546E-1,-1.5801111E0,-6.55289E-2,-9.03625E-1,-1.2130839E0,-2.7040136E-1,-1.3010331E-2,6.078941E-1,-1.9893885E-2,-2.756174E-1,-3.9256462E-1,-1.4641523E0,-4.6366167E-1,3.914274E0,-3.1512916E-1,-1.0700233E0,-1.2317231E0,4.137444E-1,-4.3349966E-1,-1.0947541E0,-4.3356675E-1,4.6799895E-1,4.6181867E-1,-5.94234E-1,8.3474346E-2,8.6654043E-1,1.2038653E0,-1.2093856E0,-1.0370966E0,-1.8620798E-2,-3.5200474E-1,-1.1291893E0,-2.5226438E0,-1.3321739E-2,8.6687857E-1,-4.3352532E-1,-5.94234E-1,1.6326004E0,-1.989806E-2,-1.722749E-1,8.6697876E-1,-1.331905E-2,8.6705315E-1,-5.636848E-1,-4.323739E-1,-1.3143253E-2,8.669512E-1,8.670678E-1,8.0377005E-2,8.671277E-1,1.0214195E0,-4.2612398E-1,-1.4521017E0,8.6637366E-1,4.9114887E-2,-9.0184766E-1,7.862482E-3,1.2210026E0,-9.1067724E-2,1.1716678E0,-6.774233E-3,-1.3321372E-2,-1.958317E-2,-9.065871E-1,8.358247E-1,-1.314877E-2,1.1870711E0,-2.573313E-1,-1.0823605E0,-1.8358309E-2,-1.2443762E0,8.670786E-1,-1.7049609E-2,4.6184605E-1,-1.2254208E0,-1.9766675E-2,-1.1241498E0,-1.1168174E0,-4.3222496E-1,-9.0791905E-1,-4.323739E-1,1.3561926E0,-4.3339455E-1,1.4260434E0,-8.4255E-1,-2.3753591E-1,-4.2041287E-1,-8.6140627E-1,-4.3353716E-1,1.705242E-1,-2.6841965E-1,1.1953571E0,-5.627466E-1,1.0228904E1,-3.5414097E-1,-1.0370966E0,-1.7799903E-2,-2.7618018E-1,-4.3327728E-1,7.060504E-1,-1.3148123E-2,-4.335094E-1,-7.0732124E-2,-1.1172141E0,-4.3027896E-1,-2.7999312E-1,-4.323739E-1,-1.2093856E0,-1.3316999E-2,-6.55289E-2,9.6369624E-1,-1.1149133E0,-1.1892236E-1,-2.7700704E-1,-1.861075E-2,-1.8613048E-2,-6.916685E-2,-1.2838825E0,-9.154524E-1,-4.0422425E-1,-2.6379567E-1,-1.1168174E0,-4.3329218E-1,-2.759747E-1,-1.536999E0,-5.690016E-1,-9.65173E-1,-1.1054254E0,-2.7535564E-1,-4.335315E-1,-1.3142307E-2,-5.523122E-1,-6.55289E-2,-1.8613985E-2,-6.7662084E-1,-2.719578E-1,9.6369624E-1,-6.020331E-1,-3.5179069E-3,8.6694175E-1,-4.331377E-1,-4.0079704E-1,-1.3136706E-2,1.3681843E0,1.5357306E0,-4.678832E-1,-2.776676E-1,-2.7667677E-1,-2.769831E-1,-1.3305834E-2,-4.3356326E-1,-1.3145899E-2,-4.3279988E-1,-4.2750475E-1,-9.112672E-1,4.5826504E-1,8.671273E-1,-1.1168174E0,-1.016779E0,4.087909E-1,1.783275E0,-2.7700704E-1,1.4260434E0,-1.2093856E0,-4.3354988E-1,-4.3352428E-1,-5.793224E-1,-2.7630988E-1,-2.2530825E0,-1.0767531E0,-4.3356463E-1,-4.3380994E-1,-4.3354422E-1,-4.331086E-1,2.1361046E0,-4.3316278E-1,7.713546E-1,3.450396E-1,8.6708444E-1,-1.298437E0,-1.8597571E-2,-4.3001268E-2,-6.581703E-1,-1.3079228E-2,1.1390308E0,-1.3520603E0,1.0164504E0,-1.925052E-1,1.492171E0,-3.1052232E-1,9.721719E-3,-9.059947E-1,-1.3320582E-2,8.644174E-1,-2.573313E-1,8.671167E-1,-4.3333915E-1,-1.3520603E0,8.790059E-1,8.6696905E-1,-1.9208523E-2,9.0151586E-2,-5.94234E-1,-1.8619062E-2,-6.715584E-1,-1.8616464E-2,-1.3033944E-2,-4.2485338E-1,-8.876293E-1,2.3282028E-3,8.489279E-1,-1.3575587E0,5.1565534E-1,-3.8169152E-1,1.5686587E0,-4.331838E-1,7.542214E-1,-4.3352395E-1,8.6502033E-1,-4.3195564E-1,-4.047813E-1,6.2470675E-1,-4.3353269E-1,-3.984307E-1,9.1164306E-2,-6.970774E-2,-4.2707762E-1,-2.6759216E-1,-4.2029628E-1,-4.330563E-1,-3.9476272E-1,6.423675E-1,-4.3341658E-1,5.241873E-1,8.5433275E-1,8.5949993E-1,7.3064137E-1,2.1612382E-1,8.66882E-1,5.7033193E-1,-9.9996984E-2,-1.7294398E-1,3.890448E-1,-2.7222323E-1,8.669334E-1,-2.3565164E-1,2.6991445E-1,1.8418664E-1,7.501063E-1,7.2030103E-1,-2.8014633E-1,-3.988786E-1,8.6647874E-1,-3.5006866E-1,8.665007E-1,-2.635845E-1,8.351867E-1,7.235429E-1,-4.3338877E-1,-3.4832934E-1,6.40044E-1,4.0427768E-1,-3.527505E-1,-4.317786E-1,8.4682137E-1,7.322241E-1,-4.331696E-1,3.359342E-1,-3.0013257E-1,-4.041336E-1,-1.5968727E-1,7.9386127E-1,-4.331696E-1,-4.3327728E-1,6.584203E-1,3.450396E-1,8.670808E-1,-8.480985E-2,5.2253103E-1,7.232023E-1,8.110633E-1,-1.8882257E-1,3.3473483E-1,7.019407E-1,4.584377E-1,-4.324931E-1,8.5179347E-1,-4.2437732E-1,8.66015E-1,3.6505476E-1,-3.7850046E-1,-3.6368927E-1,2.6143003E-1,7.815198E-2,-4.097623E-1,4.009927E-1,-3.8665503E-1,-7.046055E-2,8.6708134E-1,3.397833E-1,-3.3489245E-1,4.3177858E-1,-4.3142205E-1,-4.32672E-1,8.4404343E-1,-3.420038E-1,7.828334E-1,5.1187676E-1,-4.2780572E-1,4.8110828E-1,-4.1275716E-1,-4.25531E-1,1.0365022E-2,-2.079179E-1,-4.1316155E-1,8.6710036E-1,-2.8553095E-1,-4.3348277E-1,7.642758E-1,8.3716893E-1,-4.3307903E-1,-9.8481424E-2,7.004816E-1,2.5160229E-2,-3.9355022E-1,8.630124E-1,-2.4060932E-1,7.84874E-1,8.577024E-1,7.5212014E-1,-4.1242194E-1,-4.1961923E-1,8.666473E-1,-4.2571136E-1,3.450396E-1,7.5676095E-1,-4.330302E-1,-4.334647E-1,8.66953E-1,-4.2898688E-1,-1.4235868E-1,1.7611681E-1,8.3065844E-1,8.66978E-1,2.1154103E-1,7.9221004E-1,6.5436326E-2,-3.196098E-1,8.670316E-1,-4.334187E-1,4.7077042E-1,3.7815845E-1,8.6659145E-1,8.666928E-1,-3.593347E-1,4.0853396E-1,-3.590775E-2,-1.1987408E-1,8.671025E-1,-2.2438513E-1,-4.314728E-1,-3.809482E-1,-4.3327886E-1,-4.335373E-1,4.079634E-1,-1.5993272E-1,-4.0371245E-1,-4.2829132E-1,7.1714073E-1,-4.1510174E-1,8.668429E-1,-4.3339455E-1,8.2839733E-1,7.5999594E-1,-4.3349397E-1,-2.8893444E-1,-4.335633E-1,6.575733E-1,-4.335502E-1,-4.334676E-1,7.941077E-1,-4.1762063E-1,3.656121E-2,-3.8043934E-1,-8.856675E-2,-4.024942E-1,-4.3345144E-1,-2.6987714E-1,-4.2179206E-1,-2.2209907E-1,2.6055065E-1,-2.1671994E-1,-3.8457665E-1,5.602334E-2,8.623263E-1,-2.8854015E-1,1.3260046E-1,-9.465099E-2,-3.2802537E-1,6.869843E-1,-1.956213E-1,5.964734E-1,-4.3353352E-1,-3.797541E-1,-1.5242529E-1,-3.4908205E-1,-4.2912102E-1,1.21916056E-1,-4.3355003E-1,-4.3355203E-1,1.5093274E-1,-4.0161988E-1,8.6607724E-1,-3.9667696E-1,-4.284444E-1,-4.3344444E-1,8.6698E-1,-4.2641675E-1,-2.0619838E-1,-1.5822347E-1,-4.3143943E-1,-3.676498E-1,-4.2505953E-1,3.8332224E-1,-4.3351066E-1,-4.3144116E-1,-1.6814287E-1,8.584903E-1,-5.0420193E-3,-3.839306E-1,-2.1505696E-1,-4.1202304E-1,-2.8263706E-1,8.670784E-1,-2.6669246E-1,-4.3284205E-1,-1.9262107E-1,7.400354E-1,-4.33546E-1,6.3434553E-1,-4.335084E-1,6.6475713E-1,-2.9353166E-2,-1.7258814E-1,4.369328E-1,-3.0415666E-1,-6.4544976E-2],"split_indices":[9,5,22,5,23,9,2,2,12,45,0,6,9,22,0,21,32,0,14,19,36,21,31,19,0,9,39,5,23,20,8,19,19,6,21,17,37,20,5,0,0,17,2,17,3,0,21,4,12,14,0,23,14,23,0,45,4,8,21,16,21,4,21,22,12,1,22,21,13,32,4,5,17,19,6,3,20,2,3,33,3,2,5,0,19,0,2,6,0,0,14,0,0,8,0,19,19,1,19,19,5,3,1,4,5,6,2,6,16,19,19,0,1,21,14,13,19,13,0,2,21,2,3,14,0,0,0,19,4,19,0,0,0,1,3,17,19,0,12,2,4,0,20,12,3,0,8,2,12,8,21,0,16,21,22,0,0,19,2,23,4,21,0,3,22,3,4,22,4,0,23,16,1,4,6,3,19,21,5,12,20,21,30,4,2,30,0,4,19,2,0,6,0,32,32,17,12,0,2,19,19,14,30,19,12,26,0,0,17,4,20,0,0,26,0,1,0,5,0,0,4,0,13,3,16,0,14,3,31,6,30,3,14,26,20,3,4,5,3,16,2,14,17,0,14,45,4,20,2,19,0,12,0,17,0,1,8,19,37,2,0,33,21,19,1,23,1,19,14,21,0,17,5,0,8,2,0,37,0,19,26,6,6,2,21,21,14,14,19,19,2,0,21,19,0,21,4,1,2,4,21,0,5,3,6,14,4,21,6,2,5,0,0,0,5,1,2,36,21,21,21,26,0,5,0,0,4,40,0,19,19,32,4,21,1,19,0,0,1,22,12,19,0,30,0,0,2,0,2,0,0,4,14,4,13,5,4,6,3,4,4,12,20,3,26,0,16,0,0,6,3,0,20,31,17,14,12,14,5,0,3,5,4,4,12,3,4,0,0,0,0,0,0,0,0,0,0,0,0,0,0,0,0,0,0,0,0,0,0,0,0,0,0,0,0,0,0,0,0,0,0,0,0,0,0,0,0,0,0,0,0,0,0,0,0,0,0,0,0,0,0,0,0,0,0,0,0,0,0,0,0,0,0,0,0,0,0,0,0,0,0,0,0,0,0,0,0,0,0,0,0,0,0,0,0,0,0,0,0,0,0,0,0,0,0,0,0,0,0,0,0,0,0,0,0,0,0,0,0,0,0,0,0,0,0,0,0,0,0,0,0,0,0,0,0,0,0,0,0,0,0,0,0,0,0,0,0,0,0,0,0,0,0,0,0,0,0,0,0,0,0,0,0,0,0,0,0,0,0,0,0,0,0,0,0,0,0,0,0,0,0,0,0,0,0,0,0,0,0,0,0,0,0,0,0,0,0,0,0,0,0,0,0,0,0,0,0,0,0,0,0,0,0,0,0,0,0,0,0,0,0,0,0,0,0,0,0,0,0,0,0,0,0,0,0,0,0,0,0],"split_type":[0,0,0,0,0,0,0,0,0,0,0,0,0,0,0,0,0,0,0,0,0,0,0,0,0,0,0,0,0,0,0,0,0,0,0,0,0,0,0,0,0,0,0,0,0,0,0,0,0,0,0,0,0,0,0,0,0,0,0,0,0,0,0,0,0,0,0,0,0,0,0,0,0,0,0,0,0,0,0,0,0,0,0,0,0,0,0,0,0,0,0,0,0,0,0,0,0,0,0,0,0,0,0,0,0,0,0,0,0,0,0,0,0,0,0,0,0,0,0,0,0,0,0,0,0,0,0,0,0,0,0,0,0,0,0,0,0,0,0,0,0,0,0,0,0,0,0,0,0,0,0,0,0,0,0,0,0,0,0,0,0,0,0,0,0,0,0,0,0,0,0,0,0,0,0,0,0,0,0,0,0,0,0,0,0,0,0,0,0,0,0,0,0,0,0,0,0,0,0,0,0,0,0,0,0,0,0,0,0,0,0,0,0,0,0,0,0,0,0,0,0,0,0,0,0,0,0,0,0,0,0,0,0,0,0,0,0,0,0,0,0,0,0,0,0,0,0,0,0,0,0,0,0,0,0,0,0,0,0,0,0,0,0,0,0,0,0,0,0,0,0,0,0,0,0,0,0,0,0,0,0,0,0,0,0,0,0,0,0,0,0,0,0,0,0,0,0,0,0,0,0,0,0,0,0,0,0,0,0,0,0,0,0,0,0,0,0,0,0,0,0,0,0,0,0,0,0,0,0,0,0,0,0,0,0,0,0,0,0,0,0,0,0,0,0,0,0,0,0,0,0,0,0,0,0,0,0,0,0,0,0,0,0,0,0,0,0,0,0,0,0,0,0,0,0,0,0,0,0,0,0,0,0,0,0,0,0,0,0,0,0,0,0,0,0,0,0,0,0,0,0,0,0,0,0,0,0,0,0,0,0,0,0,0,0,0,0,0,0,0,0,0,0,0,0,0,0,0,0,0,0,0,0,0,0,0,0,0,0,0,0,0,0,0,0,0,0,0,0,0,0,0,0,0,0,0,0,0,0,0,0,0,0,0,0,0,0,0,0,0,0,0,0,0,0,0,0,0,0,0,0,0,0,0,0,0,0,0,0,0,0,0,0,0,0,0,0,0,0,0,0,0,0,0,0,0,0,0,0,0,0,0,0,0,0,0,0,0,0,0,0,0,0,0,0,0,0,0,0,0,0,0,0,0,0,0,0,0,0,0,0,0,0,0,0,0,0,0,0,0,0,0,0,0,0,0,0,0,0,0,0,0,0,0,0,0,0,0,0,0,0,0,0,0,0,0,0,0,0,0,0,0,0,0,0,0,0,0,0,0,0,0,0,0,0,0,0,0,0,0,0,0,0,0,0,0,0,0,0,0,0,0,0,0,0,0,0,0,0],"sum_hessian":[1.2949324E6,4.7051862E5,8.2441375E5,4.9155773E4,4.2136288E5,6.901833E5,1.3423044E5,3.2227775E4,1.6927998E4,4.1453997E5,6.8228887E3,2.6145775E4,6.640375E5,1.1916222E5,1.5068222E4,3.1099998E4,1.1277777E3,1.3302222E3,1.5597776E4,3.943453E5,2.0194666E4,2.488511E4,1.2606666E3,6.9794664E4,5.942429E5,3.863511E4,8.052711E4,3.0938887E4,1.611111E2,9.3333325E2,1.9444443E2,1.2781333E4,2.8164443E3,3.6011975E5,3.4225555E4,3.1111108E3,1.7083555E4,8.433555E3,1.6451555E4,1.2473333E3,1.3333332E1,1.0088666E4,5.9705996E4,2.9488887E4,9.146222E3,1.0250443E4,7.0276664E4,2.5498887E4,5.4399995E3,1.5088889E2,1.0222221E1,8.671111E2,6.622222E1,2.1555553E1,1.7288889E2,7.379111E3,5.4022217E3,2.2855554E3,5.3088885E2,3.575982E5,2.5215554E3,1.5367777E4,1.8857777E4,3.7666666E2,2.7344443E3,1.1232443E4,5.851111E3,6.3142217E3,2.1193333E3,1.640822E4,4.3333332E1,3.1711108E2,9.771555E3,5.965711E4,4.8888885E1,1.8674889E4,1.0813999E4,4.3939995E3,4.752222E3,3.377644E4,3.650022E4,3.6444443E2,2.5134443E4,2.3955554E2,5.2004443E3,7.1111107E0,1.4377777E2,8.557777E2,1.1333333E1,5.333333E1,1.2888888E1,1.6444443E1,5.1111107E0,5.8308887E3,1.5482222E3,1.1573333E3,4.2448887E3,1.7546665E3,5.3088885E2,4.482222E2,8.2666664E1,3.560473E5,1.5508888E3,2.2875554E3,2.3399998E2,4.927333E3,1.0440443E4,7.027555E3,1.1830222E4,1.6866666E2,2.0799998E2,5.7777777E0,2.7286665E3,1.0720889E4,5.115555E2,1.2099999E3,4.641111E3,6.167555E3,1.4666666E2,1.5568888E3,5.624444E2,1.4344888E4,2.0633333E3,2.7999998E1,1.5333332E1,1.5555555E0,3.1555554E2,9.686889E3,8.4666664E1,2.187622E4,3.7780887E4,1.6444443E1,3.2444443E1,4.092222E3,1.4582666E4,8.256444E3,2.5575554E3,8.222221E0,4.3857773E3,4.5599997E2,4.296222E3,1.2165555E4,2.1610887E4,7.627555E3,2.8872664E4,1.8955554E2,1.7488889E2,1.9875777E4,5.2586665E3,3.1817776E3,2.0186665E3,1.9999999E0,1.4177777E2,8.231111E2,3.2666664E1,7.5555553E0,5.333333E0,3.8826665E3,1.948222E3,5.133333E2,6.4399994E2,2.1277776E3,2.117111E3,1.5664443E3,1.8822221E2,1.6422221E2,3.6666666E2,8.222221E1,3.6599997E2,3.333333E0,7.933333E1,3.0346153E5,5.2585773E4,5.5999994E2,9.9088885E2,9.0622217E2,1.3813333E3,2.2222221E1,2.1177777E2,3.9706665E3,9.566666E2,9.799333E3,6.411111E2,6.0377773E3,9.897777E2,1.1820443E4,9.777777E0,1.4133333E2,2.7333332E1,1.731111E2,3.4888885E1,1.1568888E3,1.5717777E3,7.847333E3,2.8735554E3,4.9888885E2,1.2666666E1,7.1111107E0,1.2028888E3,2.7355554E3,1.9055554E3,3.4013333E3,2.7662222E3,1.6044443E2,1.3964443E3,5.4599994E2,1.6444443E1,1.3522888E4,8.2199994E2,2.5399998E2,1.8093333E3,1.111111E0,2.6888887E1,9.635999E3,5.0888885E1,8.2666664E1,1.9999999E0,2.1853332E4,2.2888887E1,6.1777775E1,4.030444E3,4.833333E2,1.4099332E4,5.753111E3,2.5033333E3,5.5555553E0,2.5519998E3,1.2277777E3,3.1579998E3,2.2466666E2,2.3133331E2,1.4153333E3,2.8808887E3,8.825777E3,1.278511E4,6.286444E3,1.3411111E3,9.846666E2,2.7887998E4,1.18888885E2,5.5999996E1,1.9785777E4,8.999999E1,7.333333E1,5.185333E3,1.7922222E3,1.3895554E3,1.9964443E3,2.2222221E1,1.3999998E2,1.7777777E0,8.211111E2,1.9999999E0,1.8888887E1,1.3777777E1,1.7279999E3,2.1546665E3,1.4146666E3,5.3355554E2,4.3644443E2,7.6888885E1,1.0422221E2,5.397778E2,2.1044443E3,2.3333332E1,1.4264443E3,1.3999998E2,1.4399998E2,4.422222E1,1.5599998E2,8.222221E0,2.0377777E2,1.6288889E2,4.0666664E1,4.1555553E1,1.3777777E1,3.522222E2,7.733333E1,1.9999999E0,4.367555E3,2.9909397E5,2.4786665E3,5.010711E4,2.1333332E1,5.386666E2,3.582222E2,6.326666E2,2.0933333E2,6.9688885E2,1.3977777E2,1.2415555E3,1.9777777E1,2.4444442E0,2.031111E2,8.666666E0,3.6635554E3,3.0711108E2,2.4844443E2,7.0822217E2,5.103111E3,4.696222E3,6.511111E1,5.7599994E2,3.9788887E3,2.0588887E3,9.126666E2,7.711111E1,1.1791555E4,2.8888887E1,2.9555553E1,1.1177777E2,2.1777777E1,5.5555553E0,8.888888E0,1.6422221E2,4.622222E1,1.1106666E3,4.121111E3,3.726222E3,1.5648888E3,1.3086666E3,2.111111E1,4.7777774E2,9.555555E0,3.111111E0,8.584444E2,3.4444443E2,2.271111E3,4.6444443E2,1.2324443E3,6.731111E2,3.3013333E3,9.999999E1,2.4384443E3,3.2777777E2,3.0222221E1,1.3022221E2,5.4444443E1,1.3419999E3,4.8444443E1,4.975555E2,1.5866666E2,6.633333E2,1.5444444E2,9.955555E1,1.2628888E3,5.464444E2,4.995555E3,4.6404443E3,1.111111E0,8.155555E1,1.3267555E4,8.585777E3,1.971111E3,2.0593333E3,1.1610666E4,2.4886665E3,2.3375554E3,3.4155554E3,1.351111E2,2.3682222E3,2.3779998E3,1.7399998E2,2.3755554E2,9.9022217E2,1.5555555E0,3.1564443E3,2.1422221E2,1.0444444E1,4.6444443E1,1.8488889E2,2.5333332E1,1.3899999E3,2.8124443E3,6.844444E1,2.8968887E3,5.9288887E3,9.66511E3,3.1199998E3,8.957777E2,5.3906665E3,1.2153333E3,1.2577777E2,4.622222E1,9.384444E2,1.9397332E4,8.490666E3,6.222222E0,1.1266666E2,5.3999996E1,1.9999999E0,1.8821777E4,9.6399994E2,2.2666666E1,6.733333E1,5.0426665E3,1.4266666E2,1.3019999E3,4.902222E2,2.351111E2,1.1544443E3,1.6984443E3,2.9799997E2,6.444444E0,1.5777777E1,4.222222E0,1.3577777E2,7.575555E2,6.3555553E1,2.222222E0,1.6666666E1,1.5815554E3,1.4644444E2,1.0791111E3,1.0755555E3,1.3937777E3,2.0888887E1,2.833333E2,2.5022221E2,2.882222E2,1.4822221E2,5.7111107E1,4.7111107E1,5.333333E2,6.444444E0,2.0977776E3,6.666666E0,5.1111107E0,1.8222221E1,1.4131111E3,1.3333332E1,5.0888885E1,8.911111E1,7.244444E1,7.155555E1,1.3333333E0,4.2888885E1,1.4999998E2,5.9999995E0,1.431111E2,6.0666664E1,1.3755554E2,2.5333332E1,3.5555553E1,5.9999995E0,8.222221E0,5.5555553E0,1.111111E0,7.622222E1,8.304444E2,3.5371108E3,6.6942664E4,2.3215131E5,1.0475555E3,1.4311111E3,4.022422E4,9.882889E3,2.222222E0,1.911111E1,5.3488885E2,3.7777777E0,3.7999996E1,3.202222E2,1.4066666E2,4.9199997E2,2.7111109E1,1.8222221E2,5.797778E2,1.1711111E2,6.2888885E1,7.6888885E1,4.9333332E1,1.1922222E3,1.3333333E0,1.111111E0,2.6666665E0,2.0044443E2,5.9999996E1,3.6035554E3,1.5622221E2,1.5088889E2,2.0666666E2,4.1777775E1,5.0377774E2,2.0444443E2,2.4466666E2,4.8584443E3,1.1755555E2,4.5786665E3,2.7999998E1,5.4799994E2,3.9739998E3,4.8888884E0,7.875555E2,1.2713333E3,2.9866666E2,6.1399994E2,7.111111E1,5.9999995E0,1.9255554E3,9.865999E3,1.5111111E1,1.3777777E1,2.0888887E1,8.666666E0,1.1066666E2,1.111111E0,1.5977777E2,4.444444E0,2.311111E1,2.311111E1,9.4688885E2,1.6377777E2,6.3999996E1,4.0571108E3,1.8515554E3,1.8746665E3,1.2306666E3,3.342222E2,1.2682222E3,4.0444443E1,1.5999999E1,5.1111107E0,1.7777777E0,7.777777E0,9.555555E0,3.3488885E2,8.275555E2,1.4435554E3,1.1075555E3,1.2488888E2,1.2022221E2,5.5288885E2,2.9666666E2,3.0046665E3,7.733333E1,2.2666666E1,1.5379999E3,9.004444E2,1.0999999E2,2.1777777E2,1.5777777E1,1.4444444E1,1.3777777E1,1.3282222E3,1.6222221E1,3.222222E1,1.5999999E1,4.8155554E2,2.6222221E1,1.3244444E2,2.3777777E1,1.3066666E2,3.9888885E2,1.4755554E2,3.2371108E3,1.4033333E3,8.744444E2,1.239311E4,1.7375554E3,6.8482217E3,1.7399999E3,2.311111E2,7.731111E2,1.2862222E3,1.1309333E4,3.013333E2,2.1006665E3,3.8799997E2,7.573333E2,1.5802222E3,6.337777E2,2.7817776E3,6.622222E1,6.8888885E1,1.9497777E3,4.1844443E2,2.3266666E2,2.1453333E3,4.2666664E1,1.3133333E2,1.4755554E2,8.999999E1,9.8622217E2,3.9999998E0,1.2379999E3,1.9184443E3,1.9333332E1,2.7111109E1,1.6199998E2,2.2888887E1,5.7422217E2,8.157777E2,7.0599994E2,2.1064443E3,2.6888887E1,4.1555553E1,5.446666E2,2.3522222E3,3.682222E2,5.5606665E3,2.0497776E3,7.615333E3,2.8039998E3,3.1599997E2,7.311111E1,5.317555E3,1.1973333E3,1.7999998E1,1.8222221E1,1.0755555E2,6.222222E0,3.9999996E1,8.826666E2,5.5777775E1,1.6534443E4,2.8628887E3,7.1919995E3,1.2986666E3],"tree_param":{"num_deleted":"0","num_feature":"46","num_nodes":"619","size_leaf_vector":"1"}},{"base_weights":[-4.6629753E-2,-9.3096346E-1,4.3278003E-1,-1.0932878E0,6.4789206E-2,5.2892447E-1,-3.832341E-1,-1.2207382E0,-6.825411E-1,3.5201E-1,-5.866497E-1,7.826309E-1,-3.0392462E-1,-1.0469662E0,-1.2764044E0,2.069431E0,-8.035518E-1,1.6177984E-2,5.319318E-1,-4.8688108E-1,-1.2863028E0,6.221813E-1,1.6650839E0,-1.0507005E0,3.167413E-1,-1.1271938E0,2.0596533E0,-1.3054274E0,-1.1873498E0,2.2610223E0,5.7076883E-1,-2.9717126E-1,-1.1228249E0,3.041521E-1,-4.9763295E-1,-2.7919275E-1,-8.8635397E-1,-9.555595E-1,-4.081498E-1,9.943626E-1,1.6236705E-1,5.591063E-1,1.704646E0,-4.5823058E-1,-1.1332018E0,2.193471E0,1.7471522E-1,-6.038704E-1,-1.2015867E0,5.3698736E-1,2.2588825E0,-1.2684214E0,-1.3119057E0,1.9366252E0,-1.2232578E0,5.329327E-1,2.3606694E0,-1.2971562E-1,-3.8327852E-1,-1.1723802E0,-6.622165E-1,-1.8225092E-1,5.326002E-1,5.319268E-1,-6.0172474E-1,-1.7576835E-1,-1.2592415E0,-1.234665E0,-6.7831874E-1,-4.0559563E-1,-1.19352296E-1,-7.616355E-1,1.0792694E0,4.1367495E-1,-6.9160146E-1,1.204923E-1,1.8779229E0,3.7767753E-1,1.7256229E0,-1.2033392E0,1.2357942E0,-1.1985172E0,-8.1567955E-1,2.065931E0,2.9125392E0,3.5749868E-1,-4.4229418E-1,-1.0432338E0,9.592282E-1,-1.217229E0,-4.3116254E-1,2.9150925E0,2.158091E0,-1.2972119E0,2.1429014E0,-3.8183987E-1,-1.2804164E0,2.5247645E0,5.319544E-1,-1.0518682E0,-1.263048E0,2.5409288E0,5.947721E-1,-6.087835E-1,5.5631036E-1,-1.082572E0,-1.302841E0,2.0549157E0,-8.125465E-1,9.963431E-1,-3.2774913E-1,-2.940277E-1,-8.4913653E-1,-7.607786E-1,-1.5515304E-2,-4.0796354E-1,-1.0657357E0,-1.1139357E0,-4.079109E-1,-4.8941955E-1,-1.2212197E0,1.0991919E0,-1.2606E0,-3.248302E-1,-1.126467E0,3.1550747E-1,1.2153003E0,5.3430635E-1,-7.251198E-1,-1.0154096E0,-4.1247305E-1,-8.388318E-1,1.0650097E0,-4.1474366E-1,1.8881705E0,-1.0014334E0,1.1879973E0,1.5608796E0,1.825827E0,-1.9753692E-1,-1.2801626E0,-5.2613266E-2,1.9080533E0,2.223279E0,-1.2020954E0,2.0587761E0,-9.669904E-1,2.186853E0,5.319308E-1,3.131086E0,2.5637138E0,1.7243849E-1,1.545979E0,-5.411637E-1,1.0947341E-1,-1.2772845E0,-2.8043258E-1,1.5688256E0,-5.546524E-1,-1.2752125E0,-1.0888245E0,2.4217941E-1,-3.8285765E-1,2.4465337E0,9.251989E-1,5.3191566E-1,2.246575E0,-1.0264244E0,-1.315491E0,2.6984658E0,2.016796E0,-1.3122548E0,-1.2286236E0,5.3274554E-1,9.362011E-1,-1.0806385E0,2.1069205E0,-1.2792712E0,-1.1343338E0,6.5135473E-1,2.7447906E0,-6.4609396E-1,2.0127685E0,9.282511E-1,-4.630584E-1,-1.0944316E0,5.763401E-1,-1.306492E0,-1.0413283E0,2.3264253E0,5.7246906E-1,-4.5193064E-1,-1.2778583E0,-5.5662525E-1,1.5868098E0,1.7192733E-1,-6.779799E-1,-1.1468722E0,-1.0980676E-1,5.3190434E-1,-8.918105E-1,-1.1129675E0,-2.3331597E-1,2.9195895E0,-1.1083573E-1,1.097664E-1,-1.2012395E0,-1.3305095E0,-9.693627E-1,-2.7419257E-1,-1.019605E0,-9.7401905E-1,-1.3977846E0,1.6385777E0,-4.0166867E-1,-4.0562806E-1,-7.1971387E-1,-5.121477E-1,2.2470653E0,-1.1596401E0,6.320208E-1,-6.1537784E-1,5.112598E-1,1.2579814E0,-3.8424793E-1,3.7040475E-1,1.1914657E0,-4.5453563E-1,-1.0815637E0,5.729449E-1,-1.030581E0,2.048018E0,-5.858982E-1,5.5218744E-1,-9.8520285E-1,1.5229326E0,-5.388672E-1,1.8946928E0,-3.883445E-1,1.3137995E0,-1.1345472E0,-8.4934986E-1,1.3320346E0,1.17761E0,1.6916349E0,1.719703E0,1.86288E0,5.5401987E-1,-3.727735E-1,-1.3151325E0,-1.0770642E0,7.868263E-1,-1.0555508E0,-3.821363E-1,5.532945E-1,5.7027704E-1,1.0576116E0,-1.2090166E0,-5.0483983E-2,1.9683163E0,3.2851782E0,2.6987833E-1,-1.0884287E0,2.0096045E0,2.8518155E0,2.6370609E0,9.760239E-1,6.6248953E-1,3.4374578E0,8.266603E-1,-5.203387E-2,1.580785E0,-6.465924E-1,-3.781834E-1,-1.0065789E0,-6.8554616E-1,9.0695465E-1,-3.8231152E-1,-9.3218046E-1,4.4563258E-1,-1.0682327E0,1.7423126E0,-3.973184E-1,-3.8308507E-1,2.2368401E-1,-1.286575E0,-1.0815568E0,1.918859E0,-1.139111E0,1.068074E0,-7.307656E-1,3.2629907E0,5.3644127E-1,2.2014158E0,9.2776096E-1,4.8923713E-1,-3.8216493E-1,-1.2672142E0,-3.8208315E-1,8.4623116E-1,5.882371E-1,5.385538E-1,2.6348124E0,-1.184655E0,-3.8178605E-1,5.368854E-1,-1.239371E0,-8.1274205E-1,-1.1960428E0,9.2742544E-1,5.786857E-1,-1.1984576E0,-1.2930914E0,3.128163E0,-1.1444608E0,2.8238578E0,6.679041E-1,-9.7423154E-1,-4.250267E-1,9.7477627E-1,5.763229E-1,1.7077478E0,2.3139912E-1,-1.2957346E0,-1.17494175E-2,-1.1192272E0,5.549536E-2,-1.3183914E0,-1.2533386E0,-3.857069E-1,1.10764086E-1,2.139193E0,1.1085972E0,-7.084089E-1,8.334868E-1,-1.3084223E0,-1.2823369E-1,-8.887674E-1,1.7303153E0,-8.259851E-1,1.714973E0,2.9248502E0,1.8816752E-2,-3.9339817E-1,-9.6364814E-1,-7.06376E-1,-1.2841806E0,-1.305321E0,3.2314677E-2,-1.181442E0,-6.8673366E-1,-9.919953E-1,-4.048226E-1,8.965846E-2,-4.0580484E-1,5.3183615E-1,3.0508146E0,7.877302E-2,-6.434042E-1,-4.0663058E-1,1.4885609E0,-1.2354373E0,8.8338125E-1,-1.3771037E0,-6.635453E-1,-5.095888E-1,-1.1171618E0,1.9155713E-2,-1.072417E0,-2.0408294E-1,-1.2678597E0,-1.3275499E0,2.0155933E0,-4.0894014E-1,-9.918632E-1,5.152848E-1,3.4310122E0,6.3882214E-1,-4.1808942E-1,-1.3116153E0,-1.3511372E-1,9.181479E-1,6.2766844E-1,-1.2274429E0,-7.318816E-1,-3.445223E-1,-1.1235889E0,6.8631E-1,-3.6754414E-1,1.3325764E0,4.1353455E-1,5.3563714E-1,-4.4958115E-1,1.4546388E0,5.940761E-1,-3.0824223E-1,-9.8390937E-1,-1.1200255E0,2.4031892E-1,-8.9523566E-1,-1.279252E0,7.7787185E-1,5.892609E-1,-1.1817746E0,-3.5770407E-1,-1.2601868E0,-5.2652913E-1,1.6688265E0,-9.7409403E-1,1.741836E0,-1.1573727E0,1.8433237E0,2.271781E0,2.5740545E0,-3.9492276E-1,-1.2845587E0,1.3008127E0,5.7960445E-1,-1.2448324E0,-3.4238032E-1,1.4162645E0,2.9621354E-1,1.2978829E0,4.632488E-1,1.7228773E0,1.300007E0,1.8623469E0,9.226943E-1,1.868799E0,-6.5566134E-1,1.2463694E0,-1.3186842E0,-9.718243E-1,2.2750437E0,-1.1486636E0,1.3416444E0,-7.0460476E-2,-3.8471624E-1,-4.3903303E-1,-1.0413133E0,-1.2429736E0,-3.9195144E-1,1.3420982E0,5.6044966E-1,2.2775934E0,7.1645856E-1,1.0579952E0,-6.6458565E-1,1.141559E0,-5.478363E-1,-1.2033893E0,2.2490478E0,5.3200716E-1,5.31897E-1,2.967177E0,1.0437605E0,5.863906E-1,1.0706365E0,9.3755335E-1,3.8106868E-1,1.7739737E0,-2.477533E-1,4.3625697E-1,1.1523682E0,1.7391204E0,-6.1056472E-2,-4.3047208E-1,-1.1399207E0,-2.5736898E-1,-1.060182E0,4.393642E-1,4.755444E-1,-1.2136719E0,-1.127151E0,1.1235275E0,-3.5512525E-1,-1.5921557E-2,4.6903163E-1,-2.0487991E-1,-3.026303E-3,-3.4857702E-1,-3.9230633E-1,5.139754E-1,3.4751207E-1,-3.623793E-1,-3.8010356E-1,-3.6005855E-1,1.8221207E-1,-3.5022277E-1,7.777927E-1,5.4726267E-1,-2.7288386E-1,-3.6488134E-1,3.7825897E-1,-4.0724546E-1,4.6430185E-1,-3.281261E-1,1.1773735E0,8.5886467E-1,6.70061E-1,5.745706E-1,-4.0388367E-1,3.3430403E-1,-3.7000656E-1,5.3352994E-1,1.1106722E0,6.0996443E-1,-2.0148684E-1,-3.8299403E-1,-2.7891353E-1,-3.662606E-1,-3.533748E-1,6.688959E-1,-3.530883E-1,-1.9138308E-1,-2.5117263E-1,-3.561352E-1,-3.6727053E-1,-3.8250616E-1,6.8007797E-1,1.0643617E0,-2.8140935E-1,-3.7992677E-1,8.003097E-1,1.0285276E0,-3.6179048E-1,-2.4486914E-1,5.566502E-1,-1.7694323E-1,5.7807803E-1,4.1176552E-1,-6.6852875E-2,3.048785E-1,-2.6545182E-1,-3.8328758E-1,2.4746014E-1,-2.1801946E-1,-3.7341696E-1,-3.0296162E-1,-3.2896128E-1,2.9216927E-1,-3.552816E-1,-3.8261214E-1,-3.7207815E-1,-2.4686268E-1,5.0949883E-1,-2.7748492E-1,9.748701E-1,5.926255E-1,-2.594764E-1,-2.9576944E-2,-3.8656157E-1,3.1126833E-1,-3.8305575E-1,-3.4214914E-1,3.3053225E-1,-3.84298E-1,-3.7372842E-1,4.309626E-2,-4.3074524E-1,6.000793E-1,-3.7588745E-1,4.8222977E-1,-4.1270363E-1,5.062279E-1,9.6655E-1,8.2609713E-1,1.291884E-1,-1.931444E-1,-2.103795E-1,5.04018E-1,-3.3919138E-1,-1.5179344E-1,-3.557502E-1,-1.8247504E-2,5.3133607E-1,-3.7727493E-1,-1.7540519E-1,-3.9979196E-1,6.0135894E-2,-2.6809174E-1,-3.6324427E-1,-3.0599323E-1,-1.1904793E-1,-3.2719874E-1,-3.2711735E-1,6.2315423E-2,-2.9170045E-1,3.1104738E-1,9.5633215E-1,8.2048976E-1,-3.6906186E-2,8.65413E-1,-3.1679946E-1,-1.2882693E-1,8.497125E-1,-4.15032E-1,-3.0208242E-1,-4.0477127E-1,7.562344E-1,-4.1540328E-1,-2.0787431E-1,-4.051139E-1,-3.9980894E-1,2.717725E-1,-3.0965832E-1,1.679063E-1,1.211658E-1,-3.39911E-1,-4.545591E-2,3.9955813E-1,-4.0989527E-1,-1.8550692E-1,-3.9635608E-1,1.9933456E-1,-2.9850045E-1,-4.0781793E-1,-2.717627E-1,-4.0276888E-1,8.419245E-1,-4.0408924E-1,2.939133E-1,-4.1475138E-1,8.6697036E-1,-4.0166605E-1,1.0161706E0,5.0081515E-1,-4.092397E-1,9.74709E-1,5.6461674E-1,-3.9602786E-1,1.08997725E-1,-2.4944642E-1,-3.8222727E-1,-2.9845428E-1,-3.335422E-1,5.05456E-2,-1.45708E-1,5.6977504E-1,-3.5339174E-1,1.5869801E-1,2.6305777E-1,1.7051287E-2,-1.1947879E-1,6.138148E-1,3.9464274E-1,-3.5977926E-2,2.1684729E-1,-4.030566E-2,-1.2544268E-1,2.006972E-1,-2.5810918E-1,8.993049E-6,-1.2098275E-1,4.374625E-1,-7.3446825E-2,3.512331E-1,-2.5158533E-1,-1.6450368E-2,-3.964833E-1,-1.7989483E-1,-2.5623453E-1,-3.628102E-1,5.322482E-1,-3.820444E-1,-3.2432404E-1,5.8694786E-1,-3.7041196E-1,5.750156E-1,2.9197878E-1,-3.656739E-1,6.0296255E-1,-1.5382187E-1,5.4695046E-1,-3.6832398E-1,1.3566582E-1,-2.701383E-1,4.8981944E-1,-4.0642902E-1,-3.9971107E-1,2.3930483E-1,5.3990155E-1,-4.0595955E-1,5.6922E-1,-3.793411E-1,2.2878914E-1,5.37497E-1,-3.8548973E-1,6.7652345E-1,9.086191E-1,6.193775E-1,-3.781126E-1,6.337792E-2,-1.2363989E-1,6.023039E-1,4.7043148E-1,-3.8057694E-1,-3.8569245E-1,5.316911E-1,1.2955032E-1,4.6578303E-1,5.695088E-1,1.5018983E-2,4.1117007E-1,1.7395753E-1,-1.9709349E-1,3.6388502E-1,5.002833E-1,-2.8495625E-1,4.102685E-1,1.2469092E-1,-3.0637807E-1,5.386421E-1,3.1810996E-1,-3.406433E-1,3.3782703E-1,5.414123E-1,5.4968923E-1,-2.6450282E-1,4.4036493E-1,-3.8482603E-1,-3.396759E-1,-3.825733E-1,-3.776118E-1,6.287128E-1,1.0569054E0,5.5310524E-1,-1.05392426E-1,-3.8213935E-1,5.223632E-1,4.6718292E-2,-3.852358E-1,1.1865738E-1,2.0982634E-1,-3.1786332E-1,-3.476565E-1,-8.78714E-2,-3.7274638E-1,-3.3083194E-1,5.582243E-1,-3.881393E-1,5.9792817E-1,1.0042858E0,8.4373735E-2,-3.5852215E-1,4.58975E-1,-3.6046454E-1,6.812251E-2,-3.384654E-1,-3.1365007E-1,-3.788932E-1,5.5023026E-1,7.6421785E-1,6.944403E-1,9.1189164E-1,2.5052223E-1,-3.1650892E-1,5.186032E-1,-3.3628476E-1,-2.5181153E-1,1.1793873E-2,-1.2600833E-1,4.1129357E-1,4.3780315E-1,-8.8823065E-2,6.958638E-1,4.638815E-1,-4.1710386E-1,1.3787857E-1,-4.0901175E-1,-2.8190574E-1,6.036477E-3,-1.7434089E-1,-3.5681123E-1,-2.4162206E-1,-4.0125436E-1,5.324182E-1,3.466759E-1,-3.848345E-1,1.9489191E-1,-3.5883203E-1,-3.8270804E-1,1.0826578E-1,4.504611E-1,1.4770879E-1],"categories":[],"categories_nodes":[],"categories_segments":[],"categories_sizes":[],"default_left":[0,0,0,0,0,0,0,0,0,0,0,0,0,0,0,0,0,0,0,0,0,0,0,0,0,0,0,0,0,0,0,0,0,0,0,0,0,0,0,0,0,0,0,0,0,0,0,0,0,0,0,0,0,0,0,0,0,0,0,0,0,0,0,0,0,0,0,0,0,0,0,0,0,0,0,0,0,0,0,0,0,0,0,0,0,0,0,0,0,0,0,0,0,0,0,0,0,0,0,0,0,0,0,0,0,0,0,0,0,0,0,0,0,0,0,0,0,0,0,0,0,0,0,0,0,0,0,0,0,0,0,0,0,0,0,0,0,0,0,0,0,0,0,0,0,0,0,0,0,0,0,0,0,0,0,0,0,0,0,0,0,0,0,0,0,0,0,0,0,0,0,0,0,0,0,0,0,0,0,0,0,0,0,0,0,0,0,0,0,0,0,0,0,0,0,0,0,0,0,0,0,0,0,0,0,0,0,0,0,0,0,0,0,0,0,0,0,0,0,0,0,0,0,0,0,0,0,0,0,0,0,0,0,0,0,0,0,0,0,0,0,0,0,0,0,0,0,0,0,0,0,0,0,0,0,0,0,0,0,0,0,0,0,0,0,0,0,0,0,0,0,0,0,0,0,0,0,0,0,0,0,0,0,0,0,0,0,0,0,0,0,0,0,0,0,0,0,0,0,0,0,0,0,0,0,0,0,0,0,0,0,0,0,0,0,0,0,0,0,0,0,0,0,0,0,0,0,0,0,0,0,0,0,0,0,0,0,0,0,0,0,0,0,0,0,0,0,0,0,0,0,0,0,0,0,0,0,0,0,0,0,0,0,0,0,0,0,0,0,0,0,0,0,0,0,0,0,0,0,0,0,0,0,0,0,0,0,0,0,0,0,0,0,0,0,0,0,0,0,0,0,0,0,0,0,0,0,0,0,0,0,0,0,0,0,0,0,0,0,0,0,0,0,0,0,0,0,0,0,0,0,0,0,0,0,0,0,0,0,0,0,0,0,0,0,0,0,0,0,0,0,0,0,0,0,0,0,0,0,0,0,0,0,0,0,0,0,0,0,0,0,0,0,0,0,0,0,0,0,0,0,0,0,0,0,0,0,0,0,0,0,0,0,0,0,0,0,0,0,0,0,0,0,0,0,0,0,0,0,0,0,0,0,0,0,0,0,0,0,0,0,0,0,0,0,0,0,0,0,0,0,0,0,0,0,0,0,0,0,0,0,0,0,0,0,0,0,0,0,0,0,0,0,0,0,0,0,0,0,0,0,0,0,0,0,0,0,0,0,0,0,0,0,0,0,0,0,0,0,0,0,0,0,0,0,0,0,0,0,0,0,0,0,0,0,0,0,0,0,0,0,0,0,0,0,0,0,0,0,0,0,0,0,0,0,0,0,0,0,0,0,0,0,0,0,0,0,0,0,0,0,0,0,0,0,0,0,0,0,0,0,0,0,0,0,0,0,0,0,0,0,0,0,0,0,0,0,0,0,0,0,0,0,0,0,0,0,0,0,0,0,0,0,0,0,0,0,0,0,0,0,0,0,0,0,0,0,0,0,0,0,0,0,0,0,0,0,0,0,0,0,0,0,0,0,0,0,0,0,0,0,0,0,0,0,0,0,0,0,0,0,0,0,0,0,0,0,0,0,0,0,0,0,0,0,0,0,0,0,0,0,0,0,0,0,0,0,0,0,0,0,0,0,0,0,0,0,0,0,0,0,0,0,0,0,0,0,0,0,0,0,0,0,0,0,0,0,0,0,0,0,0,0,0,0],"id":1,"left_children":[1,3,5,7,9,11,-1,13,15,17,19,21,23,25,27,29,31,33,-1,35,37,39,41,43,45,47,49,51,53,55,-1,57,59,61,63,65,67,69,-1,71,73,75,77,79,81,83,85,87,89,-1,91,93,95,97,99,-1,101,103,-1,105,107,109,-1,-1,111,113,115,117,119,-1,121,123,125,127,129,131,133,135,137,139,141,143,145,147,149,151,153,155,157,159,161,163,165,167,169,-1,171,173,-1,175,177,179,-1,181,183,185,187,189,191,193,195,197,199,201,203,-1,205,207,-1,209,211,213,215,217,219,221,223,225,227,229,231,233,235,-1,237,239,241,243,245,247,249,251,253,255,257,259,261,263,-1,265,267,269,271,273,275,277,279,281,283,285,287,289,-1,291,-1,-1,293,295,297,299,301,303,305,-1,-1,307,309,311,313,-1,315,317,319,321,323,325,-1,327,329,331,-1,333,335,337,339,341,343,345,347,-1,349,351,353,355,357,359,361,363,365,367,369,371,373,375,-1,-1,377,379,381,383,-1,385,387,389,-1,391,393,395,397,-1,399,401,403,-1,405,407,409,411,-1,413,415,417,419,421,423,425,427,429,-1,431,433,435,437,-1,-1,-1,-1,439,441,443,445,447,449,451,453,455,-1,-1,457,459,461,463,465,467,469,471,473,-1,475,477,479,481,-1,-1,483,485,487,489,491,493,495,497,-1,499,-1,501,-1,503,-1,-1,-1,-1,505,507,-1,-1,509,511,513,-1,-1,515,517,519,521,523,-1,525,527,-1,-1,529,531,533,535,537,539,541,543,-1,545,547,-1,549,551,553,555,557,559,561,563,565,567,569,571,573,575,577,579,581,583,585,-1,587,-1,-1,589,591,593,-1,595,597,599,601,603,605,607,609,611,613,615,617,619,-1,621,623,625,627,-1,629,631,-1,-1,633,635,637,639,641,643,645,647,649,651,653,655,657,659,661,663,665,667,-1,-1,669,671,673,675,677,679,681,683,685,687,689,-1,691,693,-1,695,697,699,701,703,705,707,709,711,713,715,717,719,721,723,725,727,729,731,-1,733,735,737,-1,739,-1,741,-1,-1,743,745,747,749,751,-1,-1,753,-1,-1,-1,-1,755,757,759,761,763,765,767,-1,769,771,773,775,777,779,781,783,-1,-1,-1,-1,-1,-1,-1,-1,-1,-1,-1,-1,-1,-1,-1,-1,-1,-1,-1,-1,-1,-1,-1,-1,-1,-1,-1,-1,-1,-1,-1,-1,-1,-1,-1,-1,-1,-1,-1,-1,-1,-1,-1,-1,-1,-1,-1,-1,-1,-1,-1,-1,-1,-1,-1,-1,-1,-1,-1,-1,-1,-1,-1,-1,-1,-1,-1,-1,-1,-1,-1,-1,-1,-1,-1,-1,-1,-1,-1,-1,-1,-1,-1,-1,-1,-1,-1,-1,-1,-1,-1,-1,-1,-1,-1,-1,-1,-1,-1,-1,-1,-1,-1,-1,-1,-1,-1,-1,-1,-1,-1,-1,-1,-1,-1,-1,-1,-1,-1,-1,-1,-1,-1,-1,-1,-1,-1,-1,-1,-1,-1,-1,-1,-1,-1,-1,-1,-1,-1,-1,-1,-1,-1,-1,-1,-1,-1,-1,-1,-1,-1,-1,-1,-1,-1,-1,-1,-1,-1,-1,-1,-1,-1,-1,-1,-1,-1,-1,-1,-1,-1,-1,-1,-1,-1,-1,-1,-1,-1,-1,-1,-1,-1,-1,-1,-1,-1,-1,-1,-1,-1,-1,-1,-1,-1,-1,-1,-1,-1,-1,-1,-1,-1,-1,-1,-1,-1,-1,-1,-1,-1,-1,-1,-1,-1,-1,-1,-1,-1,-1,-1,-1,-1,-1,-1,-1,-1,-1,-1,-1,-1,-1,-1,-1,-1,-1,-1,-1,-1,-1,-1,-1,-1,-1,-1,-1,-1,-1,-1,-1,-1,-1,-1,-1,-1,-1,-1,-1,-1,-1,-1,-1,-1,-1,-1,-1,-1,-1,-1,-1,-1,-1,-1,-1,-1,-1,-1,-1,-1,-1,-1,-1,-1,-1,-1,-1,-1,-1,-1,-1,-1,-1,-1,-1,-1,-1,-1,-1,-1,-1,-1,-1,-1,-1,-1,-1,-1,-1,-1,-1],"loss_changes":[5.1542903E5,6.908041E4,1.3330019E5,1.92375E4,1.1208714E4,1.579467E5,0E0,2.7129375E3,2.8980227E4,2.077987E4,1.2795244E3,8.112547E4,8.0898516E4,1.695918E4,5.49E2,6.652344E1,1.3476711E4,5.0190615E3,0E0,1.3310037E3,9.5141846E1,8.296825E4,3.8569688E3,3.872289E3,2.5406422E4,2.5823906E3,6.886426E1,3.840625E1,5.856758E3,5.040625E1,0E0,5.55339E3,1.1669258E3,1.6266544E4,2.9648855E3,1.0698767E3,3.9763525E2,2.3591583E2,0E0,3.994872E4,4.6543242E4,1.7609954E3,2.3689844E3,1.2222403E4,1.4421484E3,6.1496094E2,9.993565E3,5.6698037E3,6.99875E2,0E0,5.698242E1,2.344086E3,3.9203125E1,3.355542E1,3.52E2,0E0,5.343994E1,9.110806E3,0E0,5.408008E2,2.028448E3,2.8322017E3,0E0,0E0,8.8794336E2,8.950833E2,2.9658081E1,4.37312E1,3.5233508E2,0E0,3.056118E2,1.9693677E3,2.6553719E4,2.3018941E4,4.456924E3,2.0700273E3,2.5806396E1,1.4800841E3,1.3830312E3,5.1964355E2,2.5620757E3,7.0616406E2,5.1600015E3,1.55375E2,7.696777E1,1.5035259E4,1.1047654E3,1.1505337E3,1.6716816E3,4.2377344E2,6.952171E2,1.5324158E1,2.0991943E1,1.1713672E2,1.3961975E1,0E0,5.053125E1,4.0575134E1,0E0,8.838721E2,8.746094E1,3.5936523E1,0E0,1.5965747E3,4.321759E3,9.9749023E2,1.7957031E1,5.228882E0,7.895974E2,1.6641826E3,2.5727153E3,8.167583E2,7.419951E2,3.8137622E2,2.0968013E3,0E0,7.06561E1,3.814978E1,0E0,2.9084467E2,3.8697754E1,1.4268488E2,8.752808E0,2.7095356E3,7.400742E2,7.040893E3,2.3561938E4,1.6319477E4,1.547959E3,1.0381934E3,1.1300408E4,4.5608893E2,8.454768E2,0E0,1.5977539E1,1.5107437E2,2.4482104E2,1.5879453E3,2.048125E2,3.917107E2,4.436328E1,8.538882E2,3.868457E1,2.161026E1,4.5921094E2,6.5781006E1,1.6928721E3,4.370371E2,0E0,7.531543E1,9.234766E1,8.686495E3,7.0289453E2,1.3026953E3,1.9510741E3,7.722656E1,8.6547473E2,6.5945776E2,3.1193777E2,8.627734E1,2.6781719E3,5.295464E2,0E0,2.0941528E1,0E0,0E0,2.5385498E1,6.7084656E2,6.828125E0,5.5813904E0,1.5424194E1,2.0808594E1,3.869961E2,0E0,0E0,2.9796094E2,1.0103729E1,4.1535156E1,2.0241846E2,0E0,1.2287598E1,1.1674556E3,5.8425903E0,4.536462E3,1.1451294E3,7.765117E2,0E0,1.1728516E1,8.7508484E1,1.5760101E1,0E0,8.740158E2,7.218848E1,3.7976355E2,4.0661816E2,2.5534622E3,7.0263965E2,5.584668E1,7.263844E2,0E0,3.7801172E2,4.2816406E1,3.107794E2,3.3364502E1,7.3299915E2,9.588086E1,2.8358765E1,1.5153381E1,4.9660583E1,4.24508E2,1.4899152E2,3.9057193E2,3.5615845E0,1.7586234E2,0E0,0E0,2.340971E1,1.5801986E3,2.6768555E1,1.933584E2,0E0,9.2411743E2,4.911242E3,1.3440094E4,0E0,1.6430441E4,4.75509E3,7.065724E2,3.5213574E2,0E0,7.6444727E2,1.0480469E1,3.363877E3,0E0,1.3572021E2,3.2623633E2,3.606671E2,1.46171875E1,0E0,9.00364E1,1.693504E2,6.2199905E1,1.0989514E2,8.5444727E2,9.067031E2,8.0709766E2,2.1485938E2,2.3676553E2,0E0,6.491211E0,2.2028674E2,2.6261127E2,7.846692E1,0E0,0E0,0E0,0E0,3.26125E2,6.257873E2,4.9887695E0,1.2276825E1,8.207762E2,6.377988E2,1.18481445E2,9.104443E1,1.221792E2,0E0,0E0,4.7053223E0,6.3784033E3,4.2087817E3,6.1499414E2,7.101477E1,1.1705741E3,3.4523584E2,9.449769E2,6.7679126E2,0E0,1.4901883E2,1.0699565E3,1.0571753E2,1.3559668E2,0E0,0E0,3.7406348E2,4.3085938E1,4.840293E2,5.7055664E0,4.1863867E2,2.1241226E2,2.8599805E2,4.248169E0,0E0,1.389917E1,0E0,3.0763165E2,0E0,1.039292E2,0E0,0E0,0E0,0E0,2.0476242E1,8.199109E1,0E0,0E0,8.85918E1,3.7185146E3,9.179004E1,0E0,0E0,6.0229492E1,2.1574219E1,4.7271957E0,1.3584961E2,1.2229736E1,0E0,2.2836963E2,4.2302773E3,0E0,0E0,3.26167E2,1.6798732E3,1.2241821E1,1.2734832E3,3.271875E2,6.5545996E2,7.185547E0,4.598242E1,0E0,9.297711E1,5.419937E0,0E0,2.5355579E2,2.3301123E2,4.1865234E0,8.130756E1,1.8314291E2,7.061496E1,7.85011E1,1.4286621E2,8.887207E0,1.6880254E3,3.0947012E3,3.9687378E2,7.402572E1,4.6311157E1,2.4683899E1,6.444913E2,2.4374268E1,4.5602234E2,1.4621051E2,0E0,6.9833575E2,0E0,0E0,1.144519E1,3.2218628E3,1.7053802E2,0E0,1.0194878E2,1.2273254E1,2.5838684E1,7.328369E0,3.6787304E1,1.08918976E2,4.9980713E1,3.1882233E2,7.251672E1,1.7916418E2,1.8967712E1,8.4244995E0,1.1970151E2,0E0,1.8540438E1,2.5415744E2,4.79895E0,4.6432972E1,0E0,3.209436E2,1.3281658E3,0E0,0E0,1.0646387E2,3.4910513E2,1.6183921E3,3.866067E2,3.7373115E3,6.051984E2,9.356281E3,3.2242314E3,1.5531869E4,4.0544722E3,2.313918E3,4.872461E3,1.009958E3,2.769464E2,2.1245508E2,4.8976837E2,9.760916E3,5.8844727E1,0E0,0E0,1.2513223E3,7.6268374E3,2.9891846E1,1.6391452E2,6.708911E1,3.641996E1,2.164296E1,9.749786E1,1.1349365E1,2.2478577E1,4.413231E0,0E0,1.5488953E1,3.6409115E1,0E0,9.992767E0,8.078497E1,1.4016968E2,3.9574054E2,6.1523535E2,5.339363E2,4.951953E2,3.5462598E2,3.4507812E1,9.028845E1,1.15640625E2,6.827823E1,1.2845447E2,3.6904297E0,5.7501007E1,9.545181E0,1.2216882E2,1.8413715E2,1.3171297E2,0E0,1.09841324E2,1.1480244E3,2.1841406E2,0E0,2.6347333E2,0E0,1.1928894E1,0E0,0E0,2.6782538E2,5.558263E2,8.78716E2,1.0754004E2,1.652417E2,0E0,0E0,7.418652E1,0E0,0E0,0E0,0E0,7.367023E3,2.870957E2,5.655589E3,1.0844499E4,1.2937983E3,5.939199E2,6.31568E1,0E0,7.885132E1,1.0563235E3,1.6783545E2,4.0816208E2,6.301727E2,5.553064E1,4.371373E1,3.698634E2,0E0,0E0,0E0,0E0,0E0,0E0,0E0,0E0,0E0,0E0,0E0,0E0,0E0,0E0,0E0,0E0,0E0,0E0,0E0,0E0,0E0,0E0,0E0,0E0,0E0,0E0,0E0,0E0,0E0,0E0,0E0,0E0,0E0,0E0,0E0,0E0,0E0,0E0,0E0,0E0,0E0,0E0,0E0,0E0,0E0,0E0,0E0,0E0,0E0,0E0,0E0,0E0,0E0,0E0,0E0,0E0,0E0,0E0,0E0,0E0,0E0,0E0,0E0,0E0,0E0,0E0,0E0,0E0,0E0,0E0,0E0,0E0,0E0,0E0,0E0,0E0,0E0,0E0,0E0,0E0,0E0,0E0,0E0,0E0,0E0,0E0,0E0,0E0,0E0,0E0,0E0,0E0,0E0,0E0,0E0,0E0,0E0,0E0,0E0,0E0,0E0,0E0,0E0,0E0,0E0,0E0,0E0,0E0,0E0,0E0,0E0,0E0,0E0,0E0,0E0,0E0,0E0,0E0,0E0,0E0,0E0,0E0,0E0,0E0,0E0,0E0,0E0,0E0,0E0,0E0,0E0,0E0,0E0,0E0,0E0,0E0,0E0,0E0,0E0,0E0,0E0,0E0,0E0,0E0,0E0,0E0,0E0,0E0,0E0,0E0,0E0,0E0,0E0,0E0,0E0,0E0,0E0,0E0,0E0,0E0,0E0,0E0,0E0,0E0,0E0,0E0,0E0,0E0,0E0,0E0,0E0,0E0,0E0,0E0,0E0,0E0,0E0,0E0,0E0,0E0,0E0,0E0,0E0,0E0,0E0,0E0,0E0,0E0,0E0,0E0,0E0,0E0,0E0,0E0,0E0,0E0,0E0,0E0,0E0,0E0,0E0,0E0,0E0,0E0,0E0,0E0,0E0,0E0,0E0,0E0,0E0,0E0,0E0,0E0,0E0,0E0,0E0,0E0,0E0,0E0,0E0,0E0,0E0,0E0,0E0,0E0,0E0,0E0,0E0,0E0,0E0,0E0,0E0,0E0,0E0,0E0,0E0,0E0,0E0,0E0,0E0,0E0,0E0,0E0,0E0,0E0,0E0,0E0,0E0,0E0,0E0,0E0,0E0,0E0,0E0,0E0,0E0,0E0,0E0,0E0,0E0,0E0,0E0,0E0,0E0,0E0,0E0,0E0,0E0,0E0,0E0,0E0,0E0,0E0,0E0,0E0,0E0,0E0,0E0,0E0,0E0,0E0,0E0,0E0,0E0,0E0,0E0,0E0,0E0,0E0,0E0,0E0,0E0,0E0,0E0,0E0,0E0,0E0,0E0,0E0,0E0,0E0,0E0,0E0,0E0,0E0,0E0,0E0,0E0,0E0],"parents":[2147483647,0,0,1,1,2,2,3,3,4,4,5,5,7,7,8,8,9,9,10,10,11,11,12,12,13,13,14,14,15,15,16,16,17,17,19,19,20,20,21,21,22,22,23,23,24,24,25,25,26,26,27,27,28,28,29,29,31,31,32,32,33,33,34,34,35,35,36,36,37,37,39,39,40,40,41,41,42,42,43,43,44,44,45,45,46,46,47,47,48,48,50,50,51,51,52,52,53,53,54,54,56,56,57,57,59,59,60,60,61,61,64,64,65,65,66,66,67,67,68,68,70,70,71,71,72,72,73,73,74,74,75,75,76,76,77,77,78,78,79,79,80,80,81,81,82,82,83,83,84,84,85,85,86,86,87,87,88,88,89,89,90,90,91,91,92,92,93,93,94,94,96,96,97,97,99,99,100,100,101,101,103,103,104,104,105,105,106,106,107,107,108,108,109,109,110,110,111,111,112,112,113,113,114,114,116,116,117,117,119,119,120,120,121,121,122,122,123,123,124,124,125,125,126,126,127,127,128,128,129,129,130,130,131,131,132,132,134,134,135,135,136,136,137,137,138,138,139,139,140,140,141,141,142,142,143,143,144,144,145,145,146,146,147,147,149,149,150,150,151,151,152,152,153,153,154,154,155,155,156,156,157,157,158,158,159,159,160,160,161,161,163,163,166,166,167,167,168,168,169,169,170,170,171,171,172,172,175,175,176,176,177,177,178,178,180,180,181,181,182,182,183,183,184,184,185,185,187,187,188,188,189,189,191,191,192,192,193,193,194,194,195,195,196,196,197,197,198,198,200,200,201,201,202,202,203,203,204,204,205,205,206,206,207,207,208,208,209,209,210,210,211,211,212,212,213,213,216,216,217,217,218,218,219,219,221,221,222,222,223,223,225,225,226,226,227,227,228,228,230,230,231,231,232,232,234,234,235,235,236,236,237,237,239,239,240,240,241,241,242,242,243,243,244,244,245,245,246,246,247,247,249,249,250,250,251,251,252,252,257,257,258,258,259,259,260,260,261,261,262,262,263,263,264,264,265,265,268,268,269,269,270,270,271,271,272,272,273,273,274,274,275,275,276,276,278,278,279,279,280,280,281,281,284,284,285,285,286,286,287,287,288,288,289,289,290,290,291,291,293,293,295,295,297,297,302,302,303,303,306,306,307,307,308,308,311,311,312,312,313,313,314,314,315,315,317,317,318,318,321,321,322,322,323,323,324,324,325,325,326,326,327,327,328,328,330,330,331,331,333,333,334,334,335,335,336,336,337,337,338,338,339,339,340,340,341,341,342,342,343,343,344,344,345,345,346,346,347,347,348,348,349,349,350,350,351,351,353,353,356,356,357,357,358,358,360,360,361,361,362,362,363,363,364,364,365,365,366,366,367,367,368,368,369,369,370,370,371,371,372,372,374,374,375,375,376,376,377,377,379,379,380,380,383,383,384,384,385,385,386,386,387,387,388,388,389,389,390,390,391,391,392,392,393,393,394,394,395,395,396,396,397,397,398,398,399,399,400,400,403,403,404,404,405,405,406,406,407,407,408,408,409,409,410,410,411,411,412,412,413,413,415,415,416,416,418,418,419,419,420,420,421,421,422,422,423,423,424,424,425,425,426,426,427,427,428,428,429,429,430,430,431,431,432,432,433,433,434,434,435,435,436,436,438,438,439,439,440,440,442,442,444,444,447,447,448,448,449,449,450,450,451,451,454,454,459,459,460,460,461,461,462,462,463,463,464,464,465,465,467,467,468,468,469,469,470,470,471,471,472,472,473,473,474,474],"right_children":[2,4,6,8,10,12,-1,14,16,18,20,22,24,26,28,30,32,34,-1,36,38,40,42,44,46,48,50,52,54,56,-1,58,60,62,64,66,68,70,-1,72,74,76,78,80,82,84,86,88,90,-1,92,94,96,98,100,-1,102,104,-1,106,108,110,-1,-1,112,114,116,118,120,-1,122,124,126,128,130,132,134,136,138,140,142,144,146,148,150,152,154,156,158,160,162,164,166,168,170,-1,172,174,-1,176,178,180,-1,182,184,186,188,190,192,194,196,198,200,202,204,-1,206,208,-1,210,212,214,216,218,220,222,224,226,228,230,232,234,236,-1,238,240,242,244,246,248,250,252,254,256,258,260,262,264,-1,266,268,270,272,274,276,278,280,282,284,286,288,290,-1,292,-1,-1,294,296,298,300,302,304,306,-1,-1,308,310,312,314,-1,316,318,320,322,324,326,-1,328,330,332,-1,334,336,338,340,342,344,346,348,-1,350,352,354,356,358,360,362,364,366,368,370,372,374,376,-1,-1,378,380,382,384,-1,386,388,390,-1,392,394,396,398,-1,400,402,404,-1,406,408,410,412,-1,414,416,418,420,422,424,426,428,430,-1,432,434,436,438,-1,-1,-1,-1,440,442,444,446,448,450,452,454,456,-1,-1,458,460,462,464,466,468,470,472,474,-1,476,478,480,482,-1,-1,484,486,488,490,492,494,496,498,-1,500,-1,502,-1,504,-1,-1,-1,-1,506,508,-1,-1,510,512,514,-1,-1,516,518,520,522,524,-1,526,528,-1,-1,530,532,534,536,538,540,542,544,-1,546,548,-1,550,552,554,556,558,560,562,564,566,568,570,572,574,576,578,580,582,584,586,-1,588,-1,-1,590,592,594,-1,596,598,600,602,604,606,608,610,612,614,616,618,620,-1,622,624,626,628,-1,630,632,-1,-1,634,636,638,640,642,644,646,648,650,652,654,656,658,660,662,664,666,668,-1,-1,670,672,674,676,678,680,682,684,686,688,690,-1,692,694,-1,696,698,700,702,704,706,708,710,712,714,716,718,720,722,724,726,728,730,732,-1,734,736,738,-1,740,-1,742,-1,-1,744,746,748,750,752,-1,-1,754,-1,-1,-1,-1,756,758,760,762,764,766,768,-1,770,772,774,776,778,780,782,784,-1,-1,-1,-1,-1,-1,-1,-1,-1,-1,-1,-1,-1,-1,-1,-1,-1,-1,-1,-1,-1,-1,-1,-1,-1,-1,-1,-1,-1,-1,-1,-1,-1,-1,-1,-1,-1,-1,-1,-1,-1,-1,-1,-1,-1,-1,-1,-1,-1,-1,-1,-1,-1,-1,-1,-1,-1,-1,-1,-1,-1,-1,-1,-1,-1,-1,-1,-1,-1,-1,-1,-1,-1,-1,-1,-1,-1,-1,-1,-1,-1,-1,-1,-1,-1,-1,-1,-1,-1,-1,-1,-1,-1,-1,-1,-1,-1,-1,-1,-1,-1,-1,-1,-1,-1,-1,-1,-1,-1,-1,-1,-1,-1,-1,-1,-1,-1,-1,-1,-1,-1,-1,-1,-1,-1,-1,-1,-1,-1,-1,-1,-1,-1,-1,-1,-1,-1,-1,-1,-1,-1,-1,-1,-1,-1,-1,-1,-1,-1,-1,-1,-1,-1,-1,-1,-1,-1,-1,-1,-1,-1,-1,-1,-1,-1,-1,-1,-1,-1,-1,-1,-1,-1,-1,-1,-1,-1,-1,-1,-1,-1,-1,-1,-1,-1,-1,-1,-1,-1,-1,-1,-1,-1,-1,-1,-1,-1,-1,-1,-1,-1,-1,-1,-1,-1,-1,-1,-1,-1,-1,-1,-1,-1,-1,-1,-1,-1,-1,-1,-1,-1,-1,-1,-1,-1,-1,-1,-1,-1,-1,-1,-1,-1,-1,-1,-1,-1,-1,-1,-1,-1,-1,-1,-1,-1,-1,-1,-1,-1,-1,-1,-1,-1,-1,-1,-1,-1,-1,-1,-1,-1,-1,-1,-1,-1,-1,-1,-1,-1,-1,-1,-1,-1,-1,-1,-1,-1,-1,-1,-1,-1,-1,-1,-1,-1,-1,-1,-1,-1,-1,-1,-1,-1,-1,-1,-1,-1,-1,-1,-1,-1,-1,-1,-1,-1,-1,-1,-1,-1,-1],"split_conditions":[-1.3147286E-2,-2.7109852E-1,3.44403E0,-1.3148182E-2,4.601622E0,1.2507374E0,-3.832341E-1,-2.7667677E-1,-4.5023578E-1,2.8853736E0,2.8185604E0,-2.739449E-1,-2.739449E-1,-2.769831E-1,-1.31485695E-2,-1.31480275E-2,-5.971285E-1,2.7517E0,5.319318E-1,-1.9783996E-2,-1.7616713E-2,-6.8512213E-1,-5.89956E-1,-1.1966175E0,-1.8672998E-1,-2.2610583E0,-1.0710608E0,-2.7634647E-1,-7.125082E-1,-6.8495196E-1,5.7076883E-1,3.44403E0,-1.7387327E-2,4.3128917E-1,-8.1793554E-2,1.5348243E0,-1.7600518E-2,-1.9824103E-2,-4.081498E-1,-1.4521017E0,1.1870711E0,-2.7020732E-1,-1.4521017E0,-2.6639478E0,-2.7468E-1,4.601622E0,1.0928743E0,-1.8620798E-2,-1.7983006E-2,5.3698736E-1,-1.3148541E-2,-2.766452E-1,-1.9851383E-2,-1.3148541E-2,-6.8512213E-1,5.329327E-1,-1.8544354E-2,-1.7484205E-2,-3.8327852E-1,1.2507374E0,-1.8605933E-2,1.2507374E0,5.326002E-1,5.319268E-1,-1.9869504E-2,-1.3148775E-2,-1.985613E-2,4.8940018E-1,9.374391E-1,-4.0559563E-1,-6.654669E-1,-2.7634647E-1,-5.5930626E-1,1.3854779E0,-2.7631375E-1,5.7795423E-1,-1.7617948E-2,-5.884645E-1,-2.7265632E-1,-8.876293E-1,2.6647427E0,-1.8717946E-1,-2.7436477E-1,2.8853736E0,-3.8169152E-1,-4.2612398E-1,-5.833882E-1,-2.4693956E0,-1.0370966E0,-1.314862E-2,3.44403E0,-8.2260317E-1,-6.8495196E-1,-8.9236873E-1,-1.332174E-2,-3.8183987E-1,-1.3148743E-2,-8.2260317E-1,5.319544E-1,-7.673088E-1,-1.7477462E-2,-1.1291893E0,5.947721E-1,-6.647218E-1,-4.03227E-3,1.1953571E0,-2.7139223E-1,-1.31480275E-2,1.2507374E0,-1.861075E-2,9.448661E-2,-1.7617494E-2,7.9783954E-2,-4.9899325E-1,-1.0534773E0,-4.0796354E-1,-1.98526E-2,-6.3051337E-1,-4.079109E-1,-1.9122051E-2,-1.852751E-2,-1.9402688E-2,-1.8618861E-2,-2.766452E-1,-7.673088E-1,-5.893305E-1,1.5620905E0,-4.2612398E-1,1.6841705E0,-1.8672998E-1,-2.760162E-1,-2.737042E-1,-8.7637305E-1,-4.1474366E-1,1.6841705E0,-1.7618196E-2,-1.3318241E-2,-5.5930626E-1,-5.664996E-1,-5.749439E-1,-2.7468E-1,-7.1108425E-1,-6.151101E-1,-5.4401815E-1,1.6752359E0,-5.514875E-1,-2.752193E-1,2.7517E0,5.319308E-1,-7.170086E-1,1.1870711E0,-5.8589023E-1,1.6841705E0,-1.8976893E-2,-2.7265632E-1,-1.9898064E-2,4.5825708E-1,3.44403E0,-2.3810998E-1,-2.7740622E-1,-7.675326E-1,-1.0370966E0,-3.8285765E-1,-1.3321514E-2,9.251989E-1,5.3191566E-1,1.4692032E0,-1.989806E-2,-2.2610583E0,-4.3121096E-1,-9.994839E-1,-9.042174E-1,-9.670659E-1,5.3274554E-1,9.362011E-1,-2.7634647E-1,-1.861512E-2,-8.7637305E-1,-1.8613808E-2,6.5135473E-1,-2.7431312E-1,-1.3320622E-2,-1.314806E-2,-2.7667677E-1,-4.8278105E-1,-2.7319315E-1,5.763401E-1,-1.5227176E-1,-1.9681972E-2,-2.7593055E-1,5.7246906E-1,-2.739449E-1,-2.7139223E-1,-1.9521321E-1,-1.314875E-2,-8.0670215E-2,1.0164504E0,-7.436681E-1,-1.314883E-2,5.3190434E-1,-1.7604295E-2,-1.9849885E-2,-1.8599564E-2,-8.9236873E-1,-4.5018354E-1,-4.9899325E-1,1.6503537E0,3.4005386E-1,-5.4401815E-1,-1.819767E-2,-8.586001E-1,-1.7419433E-2,2.168005E-2,-1.9424306E-2,-4.0166867E-1,-4.0562806E-1,-1.0710608E0,-1.2838825E0,-1.2093856E0,4.1748673E-1,6.320208E-1,-2.760162E-1,1.1870711E0,1.4507037E0,-3.8424793E-1,9.9876165E-1,1.0164504E0,9.761562E-1,1.1402689E0,5.729449E-1,-2.7634647E-1,-5.8307546E-1,-2.759747E-1,5.5218744E-1,-3.4322318E-2,-1.9484472E-2,-1.9893741E-2,1.1870711E0,-3.883445E-1,-9.0480983E-1,3.845496E-1,-4.015042E-1,-1.8610487E-2,-1.3144756E-2,-1.8615829E-2,-2.7020732E-1,-1.8616224E-2,-9.065871E-1,-3.727735E-1,1.2175034E-2,-2.7436477E-1,-1.9886287E-2,-2.7468E-1,-3.821363E-1,5.532945E-1,5.7027704E-1,1.0576116E0,-1.989173E-2,1.2646633E0,5.678241E-1,-7.584789E-1,-2.715594E-1,-9.0007037E-1,4.3128917E-1,7.9783954E-2,-8.414195E-1,9.760239E-1,6.6248953E-1,1.3559145E0,-2.6841965E-1,-5.855774E-1,4.7576986E-2,1.8335168E0,-1.9880228E-2,-5.855774E-1,-5.793224E-1,-1.3144066E-2,-3.8231152E-1,1.5265352E0,-2.7700704E-1,-2.766418E-1,-2.531202E0,-3.973184E-1,-3.8308507E-1,-4.4605315E-1,-1.3148793E-2,-2.7733734E-1,-1.0931476E0,4.5825353E-1,1.2001046E0,-2.7656052E-1,-1.3148743E-2,5.3644127E-1,-1.979524E-2,9.2776096E-1,-2.5131664E0,-3.8216493E-1,-1.3148879E-2,-3.8208315E-1,8.4623116E-1,5.882371E-1,5.385538E-1,-1.3148663E-2,-1.9819275E-2,-3.8178605E-1,5.368854E-1,-8.611094E-1,-2.766452E-1,-1.8180551E-2,9.2742544E-1,5.786857E-1,-1.4274386E0,1.2507374E0,-1.6977154E-1,1.0747502E0,-1.9802084E-2,6.679041E-1,-5.560239E-1,-3.2098156E-1,9.7477627E-1,5.763229E-1,-1.8597571E-2,-1.5981108E-2,-4.0574506E-1,-2.7700704E-1,-1.7619146E-2,-5.649358E-1,-9.065871E-1,-1.8574342E-2,-3.857069E-1,-1.9664263E-2,-8.4852874E-1,1.1085972E0,-2.7814224E-1,-5.560239E-1,8.965411E-2,-2.7263945E-1,-1.3320883E-2,-1.4521017E0,-1.9521321E-1,-2.7265632E-1,-8.7637305E-1,-2.089419E0,-4.2612398E-1,-1.9690175E-2,-8.668941E-1,4.903704E-2,-1.3027554E0,1.1870711E0,-1.9751107E-2,-1.9751107E-2,-1.985613E-2,-4.048226E-1,-1.7609704E-2,-4.0580484E-1,5.3183615E-1,-1.1544888E0,-1.3148182E-2,-1.3147958E-2,-4.0663058E-1,-4.409348E-1,-1.9830724E-2,-1.8616464E-2,-1.9779798E-2,-1.3148153E-2,-1.33209815E-2,-1.9779798E-2,-1.9271428E-2,-1.9536734E-2,-2.573313E-1,-1.870701E-2,1.0867853E0,-1.9664263E-2,-4.0894014E-1,-8.663017E-1,-1.981668E-2,1.5348243E0,-1.3148787E-2,-4.1808942E-1,-4.03227E-3,4.7466117E-1,9.181479E-1,6.2766844E-1,-1.1168174E0,-2.7466875E-1,-2.7631375E-1,-2.7348647E-1,-2.760162E-1,-7.673088E-1,1.6841705E0,-1.0370966E0,-1.7616589E-2,-2.759747E-1,-5.8589023E-1,1.1402689E0,-1.7612804E-2,-1.6996006E-2,-7.170086E-1,-2.7620548E-1,-2.766452E-1,1.1953571E0,7.7787185E-1,5.892609E-1,-2.7615595E-1,-2.756859E-1,-3.997478E-1,-1.9877614E-2,1.5348243E0,-2.7073166E-1,1.9070756E-1,-2.737042E-1,-2.696024E-1,-9.3998927E-1,-1.3145673E-2,-3.9492276E-1,1.5999225E-1,-2.7244496E-1,5.7960445E-1,-3.9199084E-1,-2.6379567E-1,-5.855774E-1,-2.737042E-1,1.046155E0,-3.559187E-1,1.8335168E0,-5.740056E-1,-2.7106193E-1,4.5275918E-1,-1.2093856E0,-5.647414E-1,7.8809273E-1,-8.805201E-1,-3.0097315E-1,3.4005386E-1,-1.9894166E-2,-8.959234E-1,-2.749878E-1,-3.8471624E-1,-1.9893283E-2,-1.3141254E-2,-3.5147774E-1,-3.9195144E-1,1.2846795E0,5.6044966E-1,-7.815838E-1,7.1645856E-1,1.0579952E0,-8.941461E-1,-1.9751107E-2,-1.984202E-2,-5.9378254E-1,4.7576986E-2,5.3200716E-1,5.31897E-1,-6.715584E-1,1.0437605E0,5.863906E-1,1.0706365E0,9.3755335E-1,-8.704487E-1,-1.6069595E-2,3.1921554E-1,-2.719578E-1,-5.832598E-3,3.3302805E-1,4.7576986E-2,-4.3047208E-1,-1.9889815E-2,4.32023E-1,-1.3228415E-2,-2.6962516E-1,-2.7409756E-1,-2.751538E-1,-2.7020732E-1,2.9160434E-1,-3.5512525E-1,-1.5921557E-2,4.6903163E-1,-2.0487991E-1,-3.026303E-3,-3.4857702E-1,-3.9230633E-1,5.139754E-1,3.4751207E-1,-3.623793E-1,-3.8010356E-1,-3.6005855E-1,1.8221207E-1,-3.5022277E-1,7.777927E-1,5.4726267E-1,-2.7288386E-1,-3.6488134E-1,3.7825897E-1,-4.0724546E-1,4.6430185E-1,-3.281261E-1,1.1773735E0,8.5886467E-1,6.70061E-1,5.745706E-1,-4.0388367E-1,3.3430403E-1,-3.7000656E-1,5.3352994E-1,1.1106722E0,6.0996443E-1,-2.0148684E-1,-3.8299403E-1,-2.7891353E-1,-3.662606E-1,-3.533748E-1,6.688959E-1,-3.530883E-1,-1.9138308E-1,-2.5117263E-1,-3.561352E-1,-3.6727053E-1,-3.8250616E-1,6.8007797E-1,1.0643617E0,-2.8140935E-1,-3.7992677E-1,8.003097E-1,1.0285276E0,-3.6179048E-1,-2.4486914E-1,5.566502E-1,-1.7694323E-1,5.7807803E-1,4.1176552E-1,-6.6852875E-2,3.048785E-1,-2.6545182E-1,-3.8328758E-1,2.4746014E-1,-2.1801946E-1,-3.7341696E-1,-3.0296162E-1,-3.2896128E-1,2.9216927E-1,-3.552816E-1,-3.8261214E-1,-3.7207815E-1,-2.4686268E-1,5.0949883E-1,-2.7748492E-1,9.748701E-1,5.926255E-1,-2.594764E-1,-2.9576944E-2,-3.8656157E-1,3.1126833E-1,-3.8305575E-1,-3.4214914E-1,3.3053225E-1,-3.84298E-1,-3.7372842E-1,4.309626E-2,-4.3074524E-1,6.000793E-1,-3.7588745E-1,4.8222977E-1,-4.1270363E-1,5.062279E-1,9.6655E-1,8.2609713E-1,1.291884E-1,-1.931444E-1,-2.103795E-1,5.04018E-1,-3.3919138E-1,-1.5179344E-1,-3.557502E-1,-1.8247504E-2,5.3133607E-1,-3.7727493E-1,-1.7540519E-1,-3.9979196E-1,6.0135894E-2,-2.6809174E-1,-3.6324427E-1,-3.0599323E-1,-1.1904793E-1,-3.2719874E-1,-3.2711735E-1,6.2315423E-2,-2.9170045E-1,3.1104738E-1,9.5633215E-1,8.2048976E-1,-3.6906186E-2,8.65413E-1,-3.1679946E-1,-1.2882693E-1,8.497125E-1,-4.15032E-1,-3.0208242E-1,-4.0477127E-1,7.562344E-1,-4.1540328E-1,-2.0787431E-1,-4.051139E-1,-3.9980894E-1,2.717725E-1,-3.0965832E-1,1.679063E-1,1.211658E-1,-3.39911E-1,-4.545591E-2,3.9955813E-1,-4.0989527E-1,-1.8550692E-1,-3.9635608E-1,1.9933456E-1,-2.9850045E-1,-4.0781793E-1,-2.717627E-1,-4.0276888E-1,8.419245E-1,-4.0408924E-1,2.939133E-1,-4.1475138E-1,8.6697036E-1,-4.0166605E-1,1.0161706E0,5.0081515E-1,-4.092397E-1,9.74709E-1,5.6461674E-1,-3.9602786E-1,1.08997725E-1,-2.4944642E-1,-3.8222727E-1,-2.9845428E-1,-3.335422E-1,5.05456E-2,-1.45708E-1,5.6977504E-1,-3.5339174E-1,1.5869801E-1,2.6305777E-1,1.7051287E-2,-1.1947879E-1,6.138148E-1,3.9464274E-1,-3.5977926E-2,2.1684729E-1,-4.030566E-2,-1.2544268E-1,2.006972E-1,-2.5810918E-1,8.993049E-6,-1.2098275E-1,4.374625E-1,-7.3446825E-2,3.512331E-1,-2.5158533E-1,-1.6450368E-2,-3.964833E-1,-1.7989483E-1,-2.5623453E-1,-3.628102E-1,5.322482E-1,-3.820444E-1,-3.2432404E-1,5.8694786E-1,-3.7041196E-1,5.750156E-1,2.9197878E-1,-3.656739E-1,6.0296255E-1,-1.5382187E-1,5.4695046E-1,-3.6832398E-1,1.3566582E-1,-2.701383E-1,4.8981944E-1,-4.0642902E-1,-3.9971107E-1,2.3930483E-1,5.3990155E-1,-4.0595955E-1,5.6922E-1,-3.793411E-1,2.2878914E-1,5.37497E-1,-3.8548973E-1,6.7652345E-1,9.086191E-1,6.193775E-1,-3.781126E-1,6.337792E-2,-1.2363989E-1,6.023039E-1,4.7043148E-1,-3.8057694E-1,-3.8569245E-1,5.316911E-1,1.2955032E-1,4.6578303E-1,5.695088E-1,1.5018983E-2,4.1117007E-1,1.7395753E-1,-1.9709349E-1,3.6388502E-1,5.002833E-1,-2.8495625E-1,4.102685E-1,1.2469092E-1,-3.0637807E-1,5.386421E-1,3.1810996E-1,-3.406433E-1,3.3782703E-1,5.414123E-1,5.4968923E-1,-2.6450282E-1,4.4036493E-1,-3.8482603E-1,-3.396759E-1,-3.825733E-1,-3.776118E-1,6.287128E-1,1.0569054E0,5.5310524E-1,-1.05392426E-1,-3.8213935E-1,5.223632E-1,4.6718292E-2,-3.852358E-1,1.1865738E-1,2.0982634E-1,-3.1786332E-1,-3.476565E-1,-8.78714E-2,-3.7274638E-1,-3.3083194E-1,5.582243E-1,-3.881393E-1,5.9792817E-1,1.0042858E0,8.4373735E-2,-3.5852215E-1,4.58975E-1,-3.6046454E-1,6.812251E-2,-3.384654E-1,-3.1365007E-1,-3.788932E-1,5.5023026E-1,7.6421785E-1,6.944403E-1,9.1189164E-1,2.5052223E-1,-3.1650892E-1,5.186032E-1,-3.3628476E-1,-2.5181153E-1,1.1793873E-2,-1.2600833E-1,4.1129357E-1,4.3780315E-1,-8.8823065E-2,6.958638E-1,4.638815E-1,-4.1710386E-1,1.3787857E-1,-4.0901175E-1,-2.8190574E-1,6.036477E-3,-1.7434089E-1,-3.5681123E-1,-2.4162206E-1,-4.0125436E-1,5.324182E-1,3.466759E-1,-3.848345E-1,1.9489191E-1,-3.5883203E-1,-3.8270804E-1,1.0826578E-1,4.504611E-1,1.4770879E-1],"split_indices":[5,22,28,5,21,19,0,21,12,22,18,21,21,21,5,5,19,21,0,20,15,19,1,45,13,13,12,21,12,12,0,28,15,22,31,16,15,20,0,16,3,22,16,32,21,21,3,14,14,0,5,21,20,5,19,0,14,15,0,19,14,19,0,0,20,5,20,16,16,0,3,21,1,16,21,19,15,19,21,3,30,12,21,22,3,3,1,12,19,5,28,12,12,3,7,0,5,12,0,19,15,19,0,19,15,19,21,5,19,14,35,15,30,3,13,0,20,3,0,20,14,20,14,21,19,1,1,3,16,13,21,21,3,0,16,15,7,1,1,1,21,3,3,3,3,1,22,21,0,3,3,1,16,20,21,20,31,28,1,34,12,19,0,7,0,0,1,20,13,30,12,3,12,0,0,21,14,3,14,0,21,7,5,21,30,21,0,30,20,22,0,21,21,22,5,38,3,3,5,0,15,20,14,3,13,3,3,16,3,14,3,15,15,20,0,0,12,19,19,35,0,21,3,3,0,13,3,13,3,0,21,1,21,0,19,20,20,3,0,3,35,12,14,5,14,22,14,3,0,15,21,20,21,0,0,0,0,20,1,12,3,36,3,22,30,3,0,0,3,21,1,21,16,20,1,1,5,0,3,21,22,13,0,0,30,5,21,31,45,3,22,5,0,20,0,13,0,5,0,0,0,0,5,20,0,0,19,21,20,0,0,45,19,19,19,20,0,16,12,0,0,14,15,1,21,15,1,3,14,0,20,3,0,1,16,1,22,7,16,22,21,3,12,3,20,3,30,16,3,20,20,20,0,15,0,0,13,5,5,0,3,20,14,20,5,7,20,20,20,16,20,16,20,0,3,20,16,5,0,15,12,0,0,19,22,21,22,21,19,16,19,15,21,1,3,15,15,3,22,21,19,0,0,22,21,30,20,16,21,16,21,22,19,5,0,15,22,0,36,21,1,21,12,34,16,1,21,1,19,12,16,3,1,16,20,3,21,0,20,5,34,0,1,0,3,0,0,3,20,20,3,21,0,0,12,0,0,0,0,3,20,22,21,22,21,21,0,20,12,7,21,22,22,22,40,0,0,0,0,0,0,0,0,0,0,0,0,0,0,0,0,0,0,0,0,0,0,0,0,0,0,0,0,0,0,0,0,0,0,0,0,0,0,0,0,0,0,0,0,0,0,0,0,0,0,0,0,0,0,0,0,0,0,0,0,0,0,0,0,0,0,0,0,0,0,0,0,0,0,0,0,0,0,0,0,0,0,0,0,0,0,0,0,0,0,0,0,0,0,0,0,0,0,0,0,0,0,0,0,0,0,0,0,0,0,0,0,0,0,0,0,0,0,0,0,0,0,0,0,0,0,0,0,0,0,0,0,0,0,0,0,0,0,0,0,0,0,0,0,0,0,0,0,0,0,0,0,0,0,0,0,0,0,0,0,0,0,0,0,0,0,0,0,0,0,0,0,0,0,0,0,0,0,0,0,0,0,0,0,0,0,0,0,0,0,0,0,0,0,0,0,0,0,0,0,0,0,0,0,0,0,0,0,0,0,0,0,0,0,0,0,0,0,0,0,0,0,0,0,0,0,0,0,0,0,0,0,0,0,0,0,0,0,0,0,0,0,0,0,0,0,0,0,0,0,0,0,0,0,0,0,0,0,0,0,0,0,0,0,0,0,0,0,0,0,0,0,0,0,0,0,0,0,0,0,0,0,0,0,0,0,0,0,0,0,0,0,0,0,0,0,0,0,0,0,0,0,0,0,0,0,0,0,0,0],"split_type":[0,0,0,0,0,0,0,0,0,0,0,0,0,0,0,0,0,0,0,0,0,0,0,0,0,0,0,0,0,0,0,0,0,0,0,0,0,0,0,0,0,0,0,0,0,0,0,0,0,0,0,0,0,0,0,0,0,0,0,0,0,0,0,0,0,0,0,0,0,0,0,0,0,0,0,0,0,0,0,0,0,0,0,0,0,0,0,0,0,0,0,0,0,0,0,0,0,0,0,0,0,0,0,0,0,0,0,0,0,0,0,0,0,0,0,0,0,0,0,0,0,0,0,0,0,0,0,0,0,0,0,0,0,0,0,0,0,0,0,0,0,0,0,0,0,0,0,0,0,0,0,0,0,0,0,0,0,0,0,0,0,0,0,0,0,0,0,0,0,0,0,0,0,0,0,0,0,0,0,0,0,0,0,0,0,0,0,0,0,0,0,0,0,0,0,0,0,0,0,0,0,0,0,0,0,0,0,0,0,0,0,0,0,0,0,0,0,0,0,0,0,0,0,0,0,0,0,0,0,0,0,0,0,0,0,0,0,0,0,0,0,0,0,0,0,0,0,0,0,0,0,0,0,0,0,0,0,0,0,0,0,0,0,0,0,0,0,0,0,0,0,0,0,0,0,0,0,0,0,0,0,0,0,0,0,0,0,0,0,0,0,0,0,0,0,0,0,0,0,0,0,0,0,0,0,0,0,0,0,0,0,0,0,0,0,0,0,0,0,0,0,0,0,0,0,0,0,0,0,0,0,0,0,0,0,0,0,0,0,0,0,0,0,0,0,0,0,0,0,0,0,0,0,0,0,0,0,0,0,0,0,0,0,0,0,0,0,0,0,0,0,0,0,0,0,0,0,0,0,0,0,0,0,0,0,0,0,0,0,0,0,0,0,0,0,0,0,0,0,0,0,0,0,0,0,0,0,0,0,0,0,0,0,0,0,0,0,0,0,0,0,0,0,0,0,0,0,0,0,0,0,0,0,0,0,0,0,0,0,0,0,0,0,0,0,0,0,0,0,0,0,0,0,0,0,0,0,0,0,0,0,0,0,0,0,0,0,0,0,0,0,0,0,0,0,0,0,0,0,0,0,0,0,0,0,0,0,0,0,0,0,0,0,0,0,0,0,0,0,0,0,0,0,0,0,0,0,0,0,0,0,0,0,0,0,0,0,0,0,0,0,0,0,0,0,0,0,0,0,0,0,0,0,0,0,0,0,0,0,0,0,0,0,0,0,0,0,0,0,0,0,0,0,0,0,0,0,0,0,0,0,0,0,0,0,0,0,0,0,0,0,0,0,0,0,0,0,0,0,0,0,0,0,0,0,0,0,0,0,0,0,0,0,0,0,0,0,0,0,0,0,0,0,0,0,0,0,0,0,0,0,0,0,0,0,0,0,0,0,0,0,0,0,0,0,0,0,0,0,0,0,0,0,0,0,0,0,0,0,0,0,0,0,0,0,0,0,0,0,0,0,0,0,0,0,0,0,0,0,0,0,0,0,0,0,0,0,0,0,0,0,0,0,0,0,0,0,0,0,0,0,0,0,0,0,0,0,0,0,0,0,0,0,0,0,0,0,0,0,0,0,0,0,0,0,0,0,0,0,0,0,0,0,0,0,0,0,0,0,0,0,0,0,0,0,0,0,0,0,0,0,0,0,0,0,0,0,0,0,0,0,0,0,0,0,0,0,0,0,0,0,0,0,0,0,0,0,0,0,0,0,0,0,0,0,0,0,0,0,0,0,0,0,0,0,0,0,0,0,0,0,0,0,0,0],"sum_hessian":[1.2157542E6,4.273857E5,7.883685E5,3.6748028E5,5.990542E4,7.4750275E5,4.086578E4,2.804573E5,8.702297E4,4.1574945E4,1.8330477E4,5.729638E5,1.7453892E5,6.8044516E4,2.124128E5,3.6654236E3,8.335755E4,3.3920766E4,7.6541763E3,1.6042822E4,2.2876536E3,4.8481384E5,8.8149945E4,7.922118E4,9.531774E4,6.633153E4,1.7129884E3,1.6020239E5,5.2210395E4,1.2129594E3,2.452464E3,3.2233645E4,5.1123902E4,2.1737576E4,1.218319E4,1.0555149E4,5.487673E3,6.302225E2,1.6574312E3,2.679393E5,2.1687456E5,3.0443315E3,8.510562E4,9.683154E3,6.953802E4,6.7059097E3,8.861183E4,8.255764E3,5.8075766E4,8.509082E2,8.620802E2,2.3867068E4,1.3633533E5,5.933014E2,5.1617094E4,2.3385133E2,9.791081E2,2.7721646E4,4.5119985E3,4.6157906E4,4.965993E3,1.6515895E4,5.2216826E3,5.1930994E2,1.1663881E4,9.5476E3,1.0075498E3,2.052001E3,3.4356719E3,4.1047107E2,2.197514E2,1.2357976E4,2.5558133E5,1.6756356E5,4.9311004E4,2.2845415E3,7.597901E2,1.3244261E3,8.3781195E4,6.7251377E3,2.958017E3,5.767424E4,1.1863787E4,5.6956934E3,1.01021655E3,6.836062E4,2.0251213E4,6.4443555E3,1.8114083E3,5.6920086E4,1.1556786E3,1.147641E2,7.473161E2,2.3667328E4,1.9974199E2,1.0568702E5,3.0648297E4,8.3416084E1,5.098853E2,9.725652E3,4.189144E4,6.138381E2,3.6527002E2,1.6322953E4,1.1398693E4,2.7338396E4,1.8819512E4,2.603444E2,4.705649E3,1.8148494E3,1.4701045E4,5.198594E3,6.4652866E3,2.0530027E3,7.494597E3,5.639877E2,4.4356213E2,1.2187334E3,8.332677E2,2.5488323E3,8.8683954E2,1.06275925E2,1.1347548E2,5.624222E3,6.733753E3,3.863888E4,2.1694245E5,1.5151384E5,1.6049706E4,2.282843E4,2.6482572E4,1.1333862E3,1.1511553E3,2.3406565E0,7.5744946E2,4.9017584E2,8.342503E2,3.1686377E4,5.2094816E4,4.772204E2,6.2479175E3,1.0142238E3,1.9437932E3,6.024401E1,5.7613996E4,5.932745E2,1.1270513E4,3.7082722E3,1.9874211E3,6.210657E2,3.891509E2,5.9150242E4,9.210374E3,1.717388E4,3.0773308E3,4.931282E3,1.5130731E3,1.291399E3,5.200092E2,3.921276E4,1.7707326E4,6.5899945E2,4.966791E2,4.3496487E1,7.126761E1,1.627651E2,5.84551E2,1.4966167E3,2.217071E4,3.6932346E1,1.6280965E2,1.8980393E4,1.1667904E4,4.2689274E1,4.0726814E1,9.637874E3,8.777878E1,3.7202367E4,4.6890757E3,2.5472145E2,3.591166E2,1.6093905E4,2.2904805E2,8.351466E3,3.047227E3,2.7233418E4,1.0497889E2,1.8560367E4,2.5914548E2,5.594265E1,2.0440173E2,2.6510793E3,2.0545696E3,4.9994812E2,1.3149012E3,6.058022E3,8.643022E3,9.2345557E2,4.2751387E3,1.0098382E2,6.3643027E3,1.2310304E3,8.219723E2,2.3573401E2,7.2588633E3,4.584459E1,3.9771756E2,4.878597E2,7.3087366E2,1.8129014E3,7.35931E2,3.6952396E2,5.173156E2,8.734788E1,1.8928043E1,8.9774315E1,2.370116E1,5.2424087E3,3.8181348E2,6.6670005E3,6.675236E1,6.7134697E3,3.1925408E4,2.1336375E5,3.5786912E3,1.2126841E5,3.0245443E4,9.123714E3,6.925992E3,1.1495319E2,2.2713477E4,1.7436903E3,2.473888E4,5.728913E1,1.0760972E3,8.954863E2,2.5566891E2,7.5592615E2,1.5232803E0,2.6647474E1,4.6352835E2,5.508349E1,7.791668E2,8.060253E3,2.3626123E4,1.3481756E4,3.861306E4,2.8268784E2,1.9453255E2,5.330132E3,9.1778546E2,5.5211395E2,4.6210983E2,3.6971412E0,1.9400961E3,5.130967E1,8.934343E0,5.7269797E4,3.4419635E2,5.525322E2,4.074228E1,1.0076292E3,1.0262884E4,2.9278594E3,7.804128E2,2.0626588E2,4.147998E2,2.9685153E2,9.229939E1,1.5110598E4,4.4039645E4,9.066451E3,1.4392348E2,1.2719682E4,4.4541997E3,1.5410428E3,1.5362878E3,4.3581284E3,5.7315375E2,7.873876E2,7.2568555E2,1.219522E3,7.1877106E1,2.612873E2,2.5872195E2,3.7039496E4,2.1732644E3,2.911835E2,1.7416143E4,3.564363E2,3.0256317E2,1.8248331E1,2.5248156E1,5.583862E2,2.6164787E1,2.443431E2,1.2522736E3,2.5909795E3,1.957973E4,2.7435352E1,9.496994E0,1.3041962E2,3.2390034E1,1.1980381E3,1.7782355E4,4.048946E1,1.1627415E4,2.901787E3,6.7360864E3,7.6166215E0,8.016216E1,5.4330493E3,3.1769316E4,1.1110365E1,4.6779653E3,3.0375803E2,5.5358597E1,6.478148E3,9.615757E3,3.126178E0,2.2592188E2,3.941975E3,4.409491E3,1.071068E3,1.9761589E3,2.6658588E4,5.748297E2,1.5165191E4,3.3951755E3,2.0659064E2,5.255485E1,4.9777718E1,6.164931E0,2.2101028E3,4.4097653E2,2.0013589E3,5.321069E1,4.365496E2,6.3398533E1,6.632031E1,1.2485809E3,3.191751E2,5.7388467E3,4.329754E3,4.3132686E3,2.1945775E2,7.0399786E2,4.542237E2,3.820915E3,2.638251E3,3.7260518E3,8.6654236E2,3.6448798E2,6.4423254E2,1.777398E2,2.555623E1,2.1017776E2,5.3530376E3,1.9058257E3,2.1830837E1,2.4013752E1,3.9130096E2,6.4165936E0,4.5599637E2,3.1863338E1,1.7780112E2,5.530726E2,1.3257052E3,4.871962E2,1.7174854E2,5.641825E2,3.304502E2,3.907375E1,4.9649414E2,2.0821453E1,5.3700863E1,3.364702E1,8.259331E0,1.5441831E1,1.6800321E3,3.5623767E3,2.8686277E1,3.5312723E2,5.7548096E3,9.121909E2,4.379427E3,2.3340427E3,2.662245E4,5.30296E3,1.9604586E5,1.731789E4,1.0093031E5,2.0338094E4,2.0995924E4,9.2495205E3,7.1482827E3,1.9754308E3,6.730171E3,1.9582101E2,1.4708202E4,8.005275E3,2.5028429E1,1.7186619E3,6.8504595E3,1.7888422E4,6.7275543E2,4.0334167E2,8.460559E2,4.9430367E1,5.454108E1,2.0112784E2,6.653223E2,9.060385E1,1.812533E1,8.522144E0,4.366356E2,2.6892767E1,6.7001076E0,4.838338E1,3.731635E1,7.4185046E2,9.678175E2,7.0924355E3,5.859974E2,2.3040125E4,3.419817E3,1.0061938E4,2.415765E2,3.8371484E4,1.02899E2,1.7978885E2,5.275535E3,5.4596493E1,1.9190195E1,8.985953E2,3.3518747E2,2.1692651E2,3.1940378E2,1.4270607E2,9.643534E3,4.7626266E4,1.7765114E2,1.6654521E2,5.046772E2,4.7855026E1,1.2946545E1,2.7795736E1,4.86301E2,5.213282E2,1.7997484E3,8.463135E3,1.2115853E3,1.7162742E3,7.989383E1,7.005189E2,7.929147E1,1.269744E2,3.8821655E1,5.3477737E1,1.0276709E4,4.8338887E3,3.1438357E4,1.2601289E4,2.4465986E3,6.6198525E3,8.492281E1,5.9000664E1,1.7412174E3,1.0978465E4,4.294981E3,1.5921852E2,4.8179907E2,1.0592439E3,1.4782765E2,1.3884602E3,4.283725E2,1.4478127E2,3.8987573E2,3.9751184E2,8.360477E1,6.420808E2,1.3948895E1,1.205573E3,1.5563507E2,1.0308687E2,2.1841332E4,1.5198165E4,1.5348637E2,2.019778E3,9.298661E0,2.8188486E2,6.744497E3,1.0671645E4,3.248852E2,3.1551096E1,4.4632572E1,2.579306E2,4.8127804E0,1.3435552E1,3.6098804E2,1.9739818E2,6.3846157E1,1.8049695E2,2.5803037E3,1.067597E1,9.798568E0,2.2591463E1,2.6782315E2,9.302149E2,1.0684232E3,1.0558992E4,2.5655461E3,3.3624112E2,6.4287554E3,3.0733148E2,5.034735E2,4.9295757E3,1.823291E4,1.3536408E4,4.641853E0,6.468512E0,2.33268E3,2.3452856E3,2.8259827E2,2.1159754E1,2.034941E3,4.443207E3,7.090097E2,8.906748E3,1.9400406E3,2.0019343E3,2.8230896E3,1.5864015E3,7.9650696E1,9.914173E2,9.1116595E2,1.064993E3,7.774051E3,1.8884537E4,2.5554395E2,3.192858E2,8.529617E2,1.43122295E4,3.129268E3,2.6590753E2,2.0668104E1,3.1886747E1,3.33459E0,4.6443127E1,1.6841143E3,5.259885E2,4.4454983E1,3.9652155E2,1.7634269E3,2.3793207E2,2.5846712E1,2.7363976E1,3.1418713E2,1.2236246E2,6.1446514E0,5.7253883E1,5.5723667E1,1.0596647E1,1.4295083E1,1.2342858E3,4.3866165E1,2.7530893E2,3.5356E3,2.2032466E3,3.7438713E3,5.8588257E2,2.917228E3,1.3960408E3,1.2089359E2,9.8564156E1,4.7142324E0,6.992836E2,4.5542194E1,4.086815E2,3.2296067E3,5.913084E2,1.6357565E3,1.00249445E3,2.3038584E3,1.4221936E3,7.766804E2,8.986197E1,3.0475552E2,3.39477E2,9.486561E1,1.15312164E2,4.9990156E3,3.540217E2,5.7938763E2,1.326438E3,1.6050043E1,7.9637094E0,1.8168282E2,2.0961815E2,3.6735349E0,2.7430584E0,1.634862E1,4.3964777E2,2.1995277E1,9.868062E0,1.17352905E2,6.044821E1,2.0390299E1,5.3268225E2,1.1737988E3,1.5190636E2,2.7024454E2,2.1695164E2,7.447942E1,9.726911E1,2.1341763E2,3.5076486E2,4.805671E1,2.823935E2,3.0942469E1,8.131282E0,3.76073E0,1.7060722E1,2.330633E1,3.0394535E1,3.204517E1,1.6018479E0,4.7158146E0,3.543516E0,2.9572582E1,1.6504595E3,2.0909727E3,1.471404E3,3.8697566E3,1.8850531E3,6.224587E2,2.897322E2,4.0971E3,2.8232663E2,2.203583E3,1.3045988E2,1.9622555E4,6.999894E3,5.2072036E3,9.575658E1,1.9173562E5,4.3102344E3,1.0764107E4,6.5537837E3,1.4196506E4,8.6733805E4,1.0239906E4,1.00981875E4,6.393635E2,2.035656E4,3.9099E3,5.33962E3,2.208478E3,4.9398047E3,9.530987E2,1.0223321E3,2.467376E3,4.262795E3,9.670302E1,9.911799E1,1.3650044E4,1.0581589E3,7.999775E3,5.4998937E0,2.5090346E2,6.599556E3,1.1920099E3,1.6696412E4,2.9904065E0,6.69765E2,1.17230194E2,2.8611148E2,8.3902313E2,7.032802E0,4.029239E1,9.137977E0,5.2442562E1,2.0985165E0,9.497855E0,1.9162999E2,1.01183815E1,6.552039E2,1.6936542E0,8.8910194E1,7.7972097E0,1.032812E1,4.298956E2,6.7399907E0,8.383555E0,1.850921E1,1.1776149E0,4.720577E1,2.5654827E1,1.1661522E1,1.2448275E2,6.1736774E2,1.23222176E2,8.4459534E2,6.015379E3,1.0770566E3,2.4024136E2,3.4575604E2,2.2972836E4,6.728961E1,3.0065837E3,4.1323297E2,4.036045E0,1.0057902E4,2.227265E2,1.8850008E1,2.3454892E2,3.8136934E4,9.473813E0,9.3425186E1,1.6233763E2,1.745122E1,1.7388974E2,5.1016455E3,4.935243E1,5.2440667E0,3.9708195E0,1.5219375E1,1.627545E2,7.3584076E2,2.4035522E2,9.4832245E1,5.9848827E1,1.5707768E2,5.164195E1,9.106412E1,7.911099E3,1.732435E3,3.232007E4,1.5306193E4,1.3657718E2,2.996803E1,4.075322E1,7.1018047E0,1.8273654E2,3.0356445E2,4.392522E2,8.2076004E1,7.9727673E2,1.00247174E3,4.0289048E3,4.4342305E3,6.462741E2,5.6531116E2,1.7475937E2,5.257595E2,7.732576E3,2.544133E3,4.800846E3,3.304254E1,9.947227E3,2.149113E4,6.6886616E3,5.912628E3,1.9601088E3,4.8648987E2,1.1072803E3,5.5125723E3,2.37975E1,6.1125317E1,6.518226E2,1.0893949E3,6.0833154E3,4.8951494E3,2.4168381E3,1.8781431E3,6.913576E1,9.008276E1,3.4399973E2,1.3779933E2,1.5350166E1,1.0438937E3,1.3069409E2,1.713356E1,8.119301E2,5.7653E2],"tree_param":{"num_deleted":"0","num_feature":"46","num_nodes":"785","size_leaf_vector":"1"}},{"base_weights":[-5.1378287E-2,-7.9011554E-1,3.394889E-1,-9.4664305E-1,4.006236E-2,4.1182873E-1,-3.5329735E-1,-1.100051E0,-5.1646805E-1,2.969107E-1,-4.3178076E-1,5.964373E-1,-2.4649163E-1,-1.1249431E0,-1.990849E-1,1.6886789E0,-6.266651E-1,5.6782845E-2,4.3240806E-1,6.600986E-1,-4.8816675E-1,4.5985422E-1,1.260129E0,-9.265279E-1,2.4336158E-1,-1.1698735E0,-9.2243093E-1,-8.3074766E-1,5.217274E-1,1.5919573E0,1.9889872E0,-1.7917338E-1,-9.9944896E-1,3.0628002E-1,-3.8385198E-1,7.123391E-2,1.5003201E0,-3.9959195E-1,-1.1633195E0,7.671181E-1,1.259676E-1,2.388252E-1,1.2950734E0,1.3508934E0,-1.011386E0,1.6831785E0,1.2887289E-1,-1.1900811E0,-9.474941E-1,1.9703856E0,-1.0056214E0,-1.0864933E0,-3.5856402E-1,8.4225225E-1,-3.5481155E-1,1.5711622E0,1.7242417E0,2.2079086E0,1.7889637E0,1.302294E-1,-7.4707216E-1,-6.1843914E-1,-1.0695767E0,-1.785307E-2,4.329581E-1,4.3293256E-1,-4.8039377E-1,-9.425848E-1,8.7737817E-1,1.2225677E-3,4.3547508E-1,-3.195214E-1,-1.1947497E0,-8.988132E-1,-3.6841103E-1,-1.1638294E-2,8.8210386E-1,1.0135592E0,-9.605172E-2,-3.216129E-1,9.250841E-1,4.3102142E-1,1.3266293E0,1.5454853E0,-8.414276E-2,-3.715751E-1,-1.1150265E0,1.6194459E0,2.026992E0,4.039165E-1,-4.0960902E-1,-1.2097256E0,-1.1242028E0,-3.522485E-1,-1.1194578E0,1.5945742E0,2.4154973E0,-6.755421E-1,-1.130572E0,-1.1898766E0,-3.5760736E-1,-9.6689373E-1,5.1640326E-1,1.1573589E0,-1.1106167E0,1.6711681E0,4.488582E-1,9.549359E-1,4.96574E-1,3.0322487E0,2.0229287E0,4.9809235E-1,5.8272E-1,2.8062323E-1,-3.5316628E-1,-8.7655085E-1,-1.2531088E-1,-9.151703E-1,9.704404E-1,-7.566355E-1,-1.138427E0,1.0824229E0,-1.7267361E-1,-3.5864186E-1,-1.03943E0,-1.2102492E0,9.687796E-1,5.5997208E-2,1.4968069E0,-8.172406E-1,-1.9798012E-1,-1.0955335E0,-3.7178892E-1,-2.6554552E-1,-3.5922468E-1,-6.2434894E-1,2.944186E-1,9.7012997E-1,1.0734489E-2,1.2990937E0,3.5912824E-1,-2.4820378E-1,1.1340661E0,-1.0363008E0,9.1491826E-2,-5.84637E-1,1.1234758E0,1.3983982E0,-1.13689005E-1,1.3382852E0,-2.546588E-1,1.5766532E0,-1.1001024E0,2.2228372E0,-3.6513695E-1,-8.9041775E-1,1.5221121E0,-1.1513536E0,2.9264164E-1,1.5820285E0,5.2132595E-1,1.905413E0,2.665113E0,1.433733E0,1.8422091E-1,-1.1124039E0,-2.3518191E-1,-9.2233866E-1,-1.212677E0,1.8118798E0,-1.1499641E0,6.575693E-1,-8.347118E-1,-9.263681E-1,-3.5310507E-1,4.3991974E-1,1.9286335E0,2.2780337E0,3.1119127E0,-7.114211E-1,2.2299013E0,-1.1557199E0,-4.4586554E-1,-1.1059475E0,-3.5542396E-1,4.6979043E-1,-3.6199334E-1,1.1724718E-1,-3.5642847E-1,1.9782069E0,-4.0570402E-1,-3.6022377E-1,1.3814925E0,-3.5303524E-1,4.6773773E-1,4.6584502E-1,5.5573183E-1,2.9593508E0,1.4945629E0,6.524038E-1,1.8586929E0,-2.2150491E-1,8.293571E-1,-1.0606974E0,-6.348818E-1,4.0321848E-1,-6.615459E-1,-5.870819E-1,-1.2038274E0,1.5140511E0,-6.807873E-2,-8.5570514E-1,2.0927284E0,-1.0635753E0,-1.2325764E0,-9.6169144E-1,1.2624612E0,3.4565347E-1,-5.120282E-1,-2.2576658E-1,-9.983587E-1,-6.1657363E-1,-1.1402696E0,-1.2224244E0,4.2088842E-1,2.5616138E0,-9.856924E-1,-1.1728599E0,1.3011385E0,-1.1191435E0,1.6137233E0,-1.0948472E0,-4.294135E-1,2.0220966E0,-2.5997737E-1,-3.684019E-1,-6.2403095E-1,-3.6015716E-1,6.4552057E-1,-1.0090171E0,-2.4434341E-1,-4.3401238E-2,6.3715434E-1,2.3854113E-1,1.03708E0,-4.8736113E-1,5.723874E-1,8.663071E-1,1.7756107E0,-7.934227E-2,1.7098461E0,-9.202954E-1,-1.7033445E-2,-6.6243994E-1,1.3269118E0,-1.8694139E-1,-1.1783814E0,8.2649463E-1,-4.6359462E-1,1.5319186E0,-1.150664E0,-1.2534034E0,1.2310104E0,1.5416363E0,8.698786E-3,-8.8306767E-1,1.4554111E0,1.2052225E0,1.4503564E0,-4.1669178E-1,3.2543492E-1,-5.6186914E-1,1.6064147E0,-3.4997648E-1,2.7654263E-1,2.5369492E0,-3.693276E-1,-2.2456859E-1,-1.105239E0,1.5514405E0,-3.34132E-1,3.1101062E0,-1.1527772E0,1.425674E0,-7.6018965E-1,1.6962271E0,1.5342621E0,2.0435164E0,4.66321E-1,3.0525353E0,2.1633995E0,5.679451E-1,1.6345457E0,1.3480427E0,-2.6575914E-2,6.412815E-1,-1.180642E0,-3.7167108E-1,6.6975695E-1,-3.5136762E-1,-5.591323E-1,-3.5274765E-1,-1.1899747E0,1.6618364E0,2.4313273E0,-1.0495564E0,-1.1916707E0,1.1922029E0,-3.6685404E-1,-4.774719E-1,-1.1744937E0,9.112691E-2,-1.0263674E0,5.840635E-1,4.3147042E-1,2.1311598E0,2.725272E0,3.3814883E0,6.1496884E-1,-7.962674E-1,3.5110146E-1,1.8800538E0,3.0725417E0,-8.4833825E-1,-1.1835123E0,2.0872405E0,-6.561209E-1,-1.1824512E0,3.7601628E0,1.7241058E0,-8.048818E-1,1.1565361E0,-3.5466576E-1,-3.5550913E-1,2.316407E0,6.889465E-1,-9.06191E-1,1.4141316E0,-3.8171643E-1,3.0735466E0,5.915383E-1,4.6078172E-1,2.223887E0,-6.7305386E-1,3.352385E-1,-3.572824E-1,9.3098414E-1,-1.0808096E0,6.662367E-1,-1.7294575E-1,-1.1696285E0,6.3446575E-1,-1.2493937E0,-9.068955E-1,3.844506E-1,-8.3914286E-1,1.3735913E0,-8.931365E-1,-1.2358865E0,1.7166171E0,-4.2339346E-1,-9.1286296E-1,1.5298245E0,-5.922295E-1,-1.0560484E0,2.163621E0,4.906419E-1,-8.153923E-1,-1.1641091E0,-1.2472242E0,-9.754612E-1,-1.158869E0,6.9860154E-1,3.9288202E-1,1.4135822E0,5.3653187E-1,-1.4806741E0,-1.6017568E-1,-8.1200296E-1,-4.8654205E-1,1.9943541E0,-1.0577424E0,4.809578E-1,-1.0579785E0,2.5046465E-1,-1.2135448E0,-6.795652E-1,-3.6209106E-1,-6.559435E-1,3.1365128E0,4.5769954E-1,-3.9280754E-1,5.3644705E-1,-4.0418363E-1,8.9382356E-1,-4.0960702E-1,1.4841061E0,-4.5826036E-1,6.0408884E-1,1.6430206E0,-6.2450624E-1,-1.2364521E0,-9.554605E-1,1.7251134E-2,-1.2490162E0,1.9598145E0,2.887711E0,-3.2514286E-1,7.3945254E-1,-1.1300086E0,-4.1461103E-2,1.0063093E0,-3.6505505E-1,2.5107856E0,-1.0239941E0,2.0886319E0,-5.57762E-1,-8.830207E-1,1.9445188E-1,-6.2864536E-1,8.662551E-1,1.3944374E-1,1.798687E0,1.0611149E0,-9.6061754E-1,-1.3349895E0,-1.8145639E-1,1.2703664E0,-4.3197268E-1,1.0605286E0,-2.9993975E-1,2.0729203E0,1.7493914E0,2.1263489E-1,-1.3822834E0,1.7171245E0,-3.9188942E-1,-5.2437985E-1,-1.0705416E0,1.4086579E0,-1.6447745E-1,1.804716E0,-8.524347E-1,1.4298348E0,-1.7676255E-1,-7.6435137E-1,1.4867414E0,-1.2519637E0,4.7798577E-1,4.2699802E-1,4.8810962E-1,-1.3651624E0,1.2631789E-1,-3.6728844E-1,5.104873E-1,-3.7772372E-1,4.7131726E-1,-4.128426E-1,5.167105E-1,-2.8400877E-1,1.2928797E0,3.7188694E-1,1.5729569E0,1.4622986E0,-6.5373117E-1,5.2063733E-1,-1.002381E0,1.4741032E0,-6.0104275E-1,1.7342614E0,1.1067699E0,1.4534224E0,9.021024E-2,7.8068644E-1,-4.0938252E-1,-3.7791413E-1,6.107384E-1,1.0662235E-1,1.6381357E0,2.5897973E0,-3.7341842E-1,-1.0775782E0,1.1065407E0,5.408651E-1,-1.1098142E0,1.4977865E0,2.5801246E0,5.557497E-1,4.0978937E0,-1.0725226E0,-1.1967216E0,1.8203456E0,-3.5056007E-1,-3.658565E-1,1.0667816E0,1.5507615E0,1.833713E0,1.6830182E0,4.3172443E-1,2.5682821E0,1.8715879E0,2.4935584E0,9.6790206E-1,5.387259E-1,9.7499853E-1,1.6686757E0,-6.596373E-1,1.7703706E0,1.4703829E0,-1.3627157E0,1.4556054E0,-1.4428955E-1,1.518938E0,1.501873E0,-4.7654355E-1,-1.2117267E0,1.8348684E0,-2.896859E-1,-1.1330415E0,-4.1608012E-1,1.3525459E0,-3.2385868E-1,3.0552296E-2,5.293772E-1,-3.4576696E-1,5.279765E-1,4.339026E-1,1.063639E0,4.856028E-1,-3.078168E-1,6.0823464E-1,-3.192687E-1,-3.501696E-1,4.907984E-1,-9.015241E-3,-2.8222236E-1,2.3084363E-1,-3.5144424E-1,-1.565381E-1,2.4916051E-1,-3.689829E-1,-3.078311E-1,4.3184793E-1,6.53892E-1,4.8667383E-1,8.7827677E-1,6.5326697E-1,7.009638E-1,1.0828165E0,-1.9408299E-1,-3.5426876E-1,2.257301E-1,-1.7160058E-1,5.2653015E-1,7.716748E-1,1.1521584E0,7.2692883E-1,-3.043746E-1,9.4450444E-2,-3.4470573E-1,-2.7072963E-1,7.23154E-1,4.8966587E-1,-2.8442258E-1,2.8629608E-2,8.044806E-2,-3.6530268E-1,1.3473046E0,4.6469316E-1,5.638996E-1,-4.2770144E-1,-3.6804345E-1,2.7769592E-1,-3.7471345E-1,5.196578E-1,-3.686702E-1,7.110881E-1,-3.6124897E-1,-8.360271E-2,-4.1404358E-1,4.157811E-1,8.295399E-1,9.928646E-1,6.650963E-1,4.968629E-1,5.2315027E-1,-2.1035859E-1,2.7033946E-1,-1.7195651E-1,3.337244E-1,-3.7672266E-2,-3.7184945E-1,-2.838912E-1,1.4312963E-2,-3.530187E-1,-1.5590951E-1,-3.6350778E-1,-4.428422E-1,2.2416435E-1,3.1871143E-1,-3.8357043E-1,-2.946466E-1,6.043018E-1,-3.5205576E-1,2.5125432E-1,6.671619E-2,-3.1628793E-1,-3.6051232E-1,5.74437E-1,-3.7327737E-1,5.6591842E-2,-3.5933408E-1,-1.2163346E-1,6.9414295E-2,5.3074515E-1,-3.436965E-1,3.1806427E-1,-3.722268E-1,6.050256E-2,-3.8913953E-1,4.944532E-1,-3.1677827E-1,-5.280419E-3,-3.349919E-1,-2.0279433E-1,6.4991647E-1,5.509722E-1,-2.6675767E-1,2.6546964E-1,-3.475762E-1,-2.3277123E-1,-3.6191398E-1,-3.193918E-1,-3.3196315E-1,8.616878E-2,-3.4703192E-1,4.9824202E-1,-4.032476E-1,4.5429304E-1,-2.1024251E-1,3.364044E-1,-4.3771586E-1,4.1599855E-1,-1.2152275E-1,2.4677344E-1,-4.483531E-1,-2.9861653E-1,4.5579143E-2,-3.0106646E-1,-3.1204993E-1,-9.822779E-2,-1.9669473E-2,-2.2193608E-1,9.6995103E-1,4.274677E-1,-3.472467E-1,-2.0006187E-1,-3.981348E-1,5.3750165E-2,-4.0950426E-1,2.951452E-1,-3.5388398E-1,4.3130603E-1,1.7751485E-1,-3.7999812E-1,5.537763E-1,-3.5979375E-1,3.457894E-1,9.8606235E-1,4.7169745E-1,-3.8784394E-1,4.5623893E-1,-3.8735773E-2,8.4275424E-1,4.6650106E-1,-2.5577435E-1,-3.6367238E-1,-3.6510536E-1,-2.0955512E-1,1.4020787E-1,-3.801902E-1,-3.8735867E-1,6.008216E-2,5.421769E-1,7.329427E-1,4.3119526E-1,9.2667425E-1,-3.207098E-1,-6.9344096E-2,-3.33691E-1,2.8460652E-1,-3.7327743E-1,-8.959506E-2,5.6821805E-1,-3.1734496E-1,-3.7236333E-1,3.6370564E-1,8.344048E-1,5.862946E-1,-3.139624E-1,-5.9002828E-2,5.845827E-1,7.099686E-1,-1.8921293E-1,6.478648E-1,-3.9262542E-1,-1.4367014E-1,4.8475018E-1,-2.9778287E-2,5.0524515E-1,-2.9460946E-1,3.3719593E-1,-6.175901E-2,2.6070324E-1,-2.6105676E-2,-1.16128564E-1,5.325768E-1,3.1593123E-1,-8.312208E-2,-1.1965712E-1,-3.7057394E-1,4.5246807E-1,-3.8863084E-1,